network unknown {
}
variable Cutting {
    type discrete [ 1 ] { NULL };
}
variable Geology {
    type discrete [ 3 ] { E0068, E0075, E0086 };
}
variable Grouting {
    type discrete [ 2 ] { E0102, NULL };
}
variable Location {
    type discrete [ 3 ] { E0375, E0377, E0382 };
}
variable Phenomenon {
    type discrete [ 3 ] { E0152, E0182, E0199 };
}
variable Project {
    type discrete [ 3 ] { E0004, E0013, E0025 };
}
variable Propelling {
    type discrete [ 2 ] { E0092, NULL };
}
variable Segment {
    type discrete [ 3 ] { E0054, E0059, NULL };
}
variable Seriflux {
    type discrete [ 2 ] { E0098, NULL };
}
variable Shield {
    type discrete [ 3 ] { E0045, E0052, NULL };
}
variable Stabilization {
    type discrete [ 1 ] { NULL };
}
variable Supporting {
    type discrete [ 1 ] { NULL };
}
variable Target {
    type discrete [ 3 ] { E0245, E0257, E0290 };
}
variable Tunnel {
    type discrete [ 3 ] { E0032, E0037, NULL };
}
probability ( Cutting ) {
    table 1.0 ;
}
probability ( Geology ) {
    table 0.3333333333333333, 0.3333333333333333, 0.3333333333333333 ;
}
probability ( Grouting ) {
    table 0.6666666666666666, 0.3333333333333333 ;
}
probability ( Location ) {
    table 0.3333333333333333, 0.3333333333333333, 0.3333333333333333 ;
}
probability ( Phenomenon | Project ) {
    ( E0004 ) 1.0, 0.0, 0.0;
    ( E0013 ) 0.0, 1.0, 0.0;
    ( E0025 ) 0.0, 0.0, 1.0;

}
probability ( Project | Cutting, Geology, Grouting, Location, Propelling, Segment, Seriflux, Shield, Stabilization, Supporting, Tunnel ) {
    ( NULL, E0068, E0102, E0375, E0092, E0054, E0098, E0045, NULL, NULL, E0032 ) 0.3333333333333333, 0.3333333333333333, 0.3333333333333333;
    ( NULL, E0068, E0102, E0375, E0092, E0054, E0098, E0045, NULL, NULL, E0037 ) 0.3333333333333333, 0.3333333333333333, 0.3333333333333333;
    ( NULL, E0068, E0102, E0375, E0092, E0054, E0098, E0045, NULL, NULL, NULL ) 0.3333333333333333, 0.3333333333333333, 0.3333333333333333;
    ( NULL, E0068, E0102, E0375, E0092, E0054, E0098, E0052, NULL, NULL, E0032 ) 0.3333333333333333, 0.3333333333333333, 0.3333333333333333;
    ( NULL, E0068, E0102, E0375, E0092, E0054, E0098, E0052, NULL, NULL, E0037 ) 0.3333333333333333, 0.3333333333333333, 0.3333333333333333;
    ( NULL, E0068, E0102, E0375, E0092, E0054, E0098, E0052, NULL, NULL, NULL ) 0.3333333333333333, 0.3333333333333333, 0.3333333333333333;
    ( NULL, E0068, E0102, E0375, E0092, E0054, E0098, NULL, NULL, NULL, E0032 ) 0.3333333333333333, 0.3333333333333333, 0.3333333333333333;
    ( NULL, E0068, E0102, E0375, E0092, E0054, E0098, NULL, NULL, NULL, E0037 ) 0.3333333333333333, 0.3333333333333333, 0.3333333333333333;
    ( NULL, E0068, E0102, E0375, E0092, E0054, E0098, NULL, NULL, NULL, NULL ) 0.3333333333333333, 0.3333333333333333, 0.3333333333333333;
    ( NULL, E0068, E0102, E0375, E0092, E0054, NULL, E0045, NULL, NULL, E0032 ) 1.0, 0.0, 0.0;
    ( NULL, E0068, E0102, E0375, E0092, E0054, NULL, E0045, NULL, NULL, E0037 ) 0.3333333333333333, 0.3333333333333333, 0.3333333333333333;
    ( NULL, E0068, E0102, E0375, E0092, E0054, NULL, E0045, NULL, NULL, NULL ) 0.3333333333333333, 0.3333333333333333, 0.3333333333333333;
    ( NULL, E0068, E0102, E0375, E0092, E0054, NULL, E0052, NULL, NULL, E0032 ) 0.3333333333333333, 0.3333333333333333, 0.3333333333333333;
    ( NULL, E0068, E0102, E0375, E0092, E0054, NULL, E0052, NULL, NULL, E0037 ) 0.3333333333333333, 0.3333333333333333, 0.3333333333333333;
    ( NULL, E0068, E0102, E0375, E0092, E0054, NULL, E0052, NULL, NULL, NULL ) 0.3333333333333333, 0.3333333333333333, 0.3333333333333333;
    ( NULL, E0068, E0102, E0375, E0092, E0054, NULL, NULL, NULL, NULL, E0032 ) 0.3333333333333333, 0.3333333333333333, 0.3333333333333333;
    ( NULL, E0068, E0102, E0375, E0092, E0054, NULL, NULL, NULL, NULL, E0037 ) 0.3333333333333333, 0.3333333333333333, 0.3333333333333333;
    ( NULL, E0068, E0102, E0375, E0092, E0054, NULL, NULL, NULL, NULL, NULL ) 0.3333333333333333, 0.3333333333333333, 0.3333333333333333;
    ( NULL, E0068, E0102, E0375, E0092, E0059, E0098, E0045, NULL, NULL, E0032 ) 0.3333333333333333, 0.3333333333333333, 0.3333333333333333;
    ( NULL, E0068, E0102, E0375, E0092, E0059, E0098, E0045, NULL, NULL, E0037 ) 0.3333333333333333, 0.3333333333333333, 0.3333333333333333;
    ( NULL, E0068, E0102, E0375, E0092, E0059, E0098, E0045, NULL, NULL, NULL ) 0.3333333333333333, 0.3333333333333333, 0.3333333333333333;
    ( NULL, E0068, E0102, E0375, E0092, E0059, E0098, E0052, NULL, NULL, E0032 ) 0.3333333333333333, 0.3333333333333333, 0.3333333333333333;
    ( NULL, E0068, E0102, E0375, E0092, E0059, E0098, E0052, NULL, NULL, E0037 ) 0.3333333333333333, 0.3333333333333333, 0.3333333333333333;
    ( NULL, E0068, E0102, E0375, E0092, E0059, E0098, E0052, NULL, NULL, NULL ) 0.3333333333333333, 0.3333333333333333, 0.3333333333333333;
    ( NULL, E0068, E0102, E0375, E0092, E0059, E0098, NULL, NULL, NULL, E0032 ) 0.3333333333333333, 0.3333333333333333, 0.3333333333333333;
    ( NULL, E0068, E0102, E0375, E0092, E0059, E0098, NULL, NULL, NULL, E0037 ) 0.3333333333333333, 0.3333333333333333, 0.3333333333333333;
    ( NULL, E0068, E0102, E0375, E0092, E0059, E0098, NULL, NULL, NULL, NULL ) 0.3333333333333333, 0.3333333333333333, 0.3333333333333333;
    ( NULL, E0068, E0102, E0375, E0092, E0059, NULL, E0045, NULL, NULL, E0032 ) 0.3333333333333333, 0.3333333333333333, 0.3333333333333333;
    ( NULL, E0068, E0102, E0375, E0092, E0059, NULL, E0045, NULL, NULL, E0037 ) 0.3333333333333333, 0.3333333333333333, 0.3333333333333333;
    ( NULL, E0068, E0102, E0375, E0092, E0059, NULL, E0045, NULL, NULL, NULL ) 0.3333333333333333, 0.3333333333333333, 0.3333333333333333;
    ( NULL, E0068, E0102, E0375, E0092, E0059, NULL, E0052, NULL, NULL, E0032 ) 0.3333333333333333, 0.3333333333333333, 0.3333333333333333;
    ( NULL, E0068, E0102, E0375, E0092, E0059, NULL, E0052, NULL, NULL, E0037 ) 0.3333333333333333, 0.3333333333333333, 0.3333333333333333;
    ( NULL, E0068, E0102, E0375, E0092, E0059, NULL, E0052, NULL, NULL, NULL ) 0.3333333333333333, 0.3333333333333333, 0.3333333333333333;
    ( NULL, E0068, E0102, E0375, E0092, E0059, NULL, NULL, NULL, NULL, E0032 ) 0.3333333333333333, 0.3333333333333333, 0.3333333333333333;
    ( NULL, E0068, E0102, E0375, E0092, E0059, NULL, NULL, NULL, NULL, E0037 ) 0.3333333333333333, 0.3333333333333333, 0.3333333333333333;
    ( NULL, E0068, E0102, E0375, E0092, E0059, NULL, NULL, NULL, NULL, NULL ) 0.3333333333333333, 0.3333333333333333, 0.3333333333333333;
    ( NULL, E0068, E0102, E0375, E0092, NULL, E0098, E0045, NULL, NULL, E0032 ) 0.3333333333333333, 0.3333333333333333, 0.3333333333333333;
    ( NULL, E0068, E0102, E0375, E0092, NULL, E0098, E0045, NULL, NULL, E0037 ) 0.3333333333333333, 0.3333333333333333, 0.3333333333333333;
    ( NULL, E0068, E0102, E0375, E0092, NULL, E0098, E0045, NULL, NULL, NULL ) 0.3333333333333333, 0.3333333333333333, 0.3333333333333333;
    ( NULL, E0068, E0102, E0375, E0092, NULL, E0098, E0052, NULL, NULL, E0032 ) 0.3333333333333333, 0.3333333333333333, 0.3333333333333333;
    ( NULL, E0068, E0102, E0375, E0092, NULL, E0098, E0052, NULL, NULL, E0037 ) 0.3333333333333333, 0.3333333333333333, 0.3333333333333333;
    ( NULL, E0068, E0102, E0375, E0092, NULL, E0098, E0052, NULL, NULL, NULL ) 0.3333333333333333, 0.3333333333333333, 0.3333333333333333;
    ( NULL, E0068, E0102, E0375, E0092, NULL, E0098, NULL, NULL, NULL, E0032 ) 0.3333333333333333, 0.3333333333333333, 0.3333333333333333;
    ( NULL, E0068, E0102, E0375, E0092, NULL, E0098, NULL, NULL, NULL, E0037 ) 0.3333333333333333, 0.3333333333333333, 0.3333333333333333;
    ( NULL, E0068, E0102, E0375, E0092, NULL, E0098, NULL, NULL, NULL, NULL ) 0.3333333333333333, 0.3333333333333333, 0.3333333333333333;
    ( NULL, E0068, E0102, E0375, E0092, NULL, NULL, E0045, NULL, NULL, E0032 ) 0.3333333333333333, 0.3333333333333333, 0.3333333333333333;
    ( NULL, E0068, E0102, E0375, E0092, NULL, NULL, E0045, NULL, NULL, E0037 ) 0.3333333333333333, 0.3333333333333333, 0.3333333333333333;
    ( NULL, E0068, E0102, E0375, E0092, NULL, NULL, E0045, NULL, NULL, NULL ) 0.3333333333333333, 0.3333333333333333, 0.3333333333333333;
    ( NULL, E0068, E0102, E0375, E0092, NULL, NULL, E0052, NULL, NULL, E0032 ) 0.3333333333333333, 0.3333333333333333, 0.3333333333333333;
    ( NULL, E0068, E0102, E0375, E0092, NULL, NULL, E0052, NULL, NULL, E0037 ) 0.3333333333333333, 0.3333333333333333, 0.3333333333333333;
    ( NULL, E0068, E0102, E0375, E0092, NULL, NULL, E0052, NULL, NULL, NULL ) 0.3333333333333333, 0.3333333333333333, 0.3333333333333333;
    ( NULL, E0068, E0102, E0375, E0092, NULL, NULL, NULL, NULL, NULL, E0032 ) 0.3333333333333333, 0.3333333333333333, 0.3333333333333333;
    ( NULL, E0068, E0102, E0375, E0092, NULL, NULL, NULL, NULL, NULL, E0037 ) 0.3333333333333333, 0.3333333333333333, 0.3333333333333333;
    ( NULL, E0068, E0102, E0375, E0092, NULL, NULL, NULL, NULL, NULL, NULL ) 0.3333333333333333, 0.3333333333333333, 0.3333333333333333;
    ( NULL, E0068, E0102, E0375, NULL, E0054, E0098, E0045, NULL, NULL, E0032 ) 0.3333333333333333, 0.3333333333333333, 0.3333333333333333;
    ( NULL, E0068, E0102, E0375, NULL, E0054, E0098, E0045, NULL, NULL, E0037 ) 0.3333333333333333, 0.3333333333333333, 0.3333333333333333;
    ( NULL, E0068, E0102, E0375, NULL, E0054, E0098, E0045, NULL, NULL, NULL ) 0.3333333333333333, 0.3333333333333333, 0.3333333333333333;
    ( NULL, E0068, E0102, E0375, NULL, E0054, E0098, E0052, NULL, NULL, E0032 ) 0.3333333333333333, 0.3333333333333333, 0.3333333333333333;
    ( NULL, E0068, E0102, E0375, NULL, E0054, E0098, E0052, NULL, NULL, E0037 ) 0.3333333333333333, 0.3333333333333333, 0.3333333333333333;
    ( NULL, E0068, E0102, E0375, NULL, E0054, E0098, E0052, NULL, NULL, NULL ) 0.3333333333333333, 0.3333333333333333, 0.3333333333333333;
    ( NULL, E0068, E0102, E0375, NULL, E0054, E0098, NULL, NULL, NULL, E0032 ) 0.3333333333333333, 0.3333333333333333, 0.3333333333333333;
    ( NULL, E0068, E0102, E0375, NULL, E0054, E0098, NULL, NULL, NULL, E0037 ) 0.3333333333333333, 0.3333333333333333, 0.3333333333333333;
    ( NULL, E0068, E0102, E0375, NULL, E0054, E0098, NULL, NULL, NULL, NULL ) 0.3333333333333333, 0.3333333333333333, 0.3333333333333333;
    ( NULL, E0068, E0102, E0375, NULL, E0054, NULL, E0045, NULL, NULL, E0032 ) 0.3333333333333333, 0.3333333333333333, 0.3333333333333333;
    ( NULL, E0068, E0102, E0375, NULL, E0054, NULL, E0045, NULL, NULL, E0037 ) 0.3333333333333333, 0.3333333333333333, 0.3333333333333333;
    ( NULL, E0068, E0102, E0375, NULL, E0054, NULL, E0045, NULL, NULL, NULL ) 0.3333333333333333, 0.3333333333333333, 0.3333333333333333;
    ( NULL, E0068, E0102, E0375, NULL, E0054, NULL, E0052, NULL, NULL, E0032 ) 0.3333333333333333, 0.3333333333333333, 0.3333333333333333;
    ( NULL, E0068, E0102, E0375, NULL, E0054, NULL, E0052, NULL, NULL, E0037 ) 0.3333333333333333, 0.3333333333333333, 0.3333333333333333;
    ( NULL, E0068, E0102, E0375, NULL, E0054, NULL, E0052, NULL, NULL, NULL ) 0.3333333333333333, 0.3333333333333333, 0.3333333333333333;
    ( NULL, E0068, E0102, E0375, NULL, E0054, NULL, NULL, NULL, NULL, E0032 ) 0.3333333333333333, 0.3333333333333333, 0.3333333333333333;
    ( NULL, E0068, E0102, E0375, NULL, E0054, NULL, NULL, NULL, NULL, E0037 ) 0.3333333333333333, 0.3333333333333333, 0.3333333333333333;
    ( NULL, E0068, E0102, E0375, NULL, E0054, NULL, NULL, NULL, NULL, NULL ) 0.3333333333333333, 0.3333333333333333, 0.3333333333333333;
    ( NULL, E0068, E0102, E0375, NULL, E0059, E0098, E0045, NULL, NULL, E0032 ) 0.3333333333333333, 0.3333333333333333, 0.3333333333333333;
    ( NULL, E0068, E0102, E0375, NULL, E0059, E0098, E0045, NULL, NULL, E0037 ) 0.3333333333333333, 0.3333333333333333, 0.3333333333333333;
    ( NULL, E0068, E0102, E0375, NULL, E0059, E0098, E0045, NULL, NULL, NULL ) 0.3333333333333333, 0.3333333333333333, 0.3333333333333333;
    ( NULL, E0068, E0102, E0375, NULL, E0059, E0098, E0052, NULL, NULL, E0032 ) 0.3333333333333333, 0.3333333333333333, 0.3333333333333333;
    ( NULL, E0068, E0102, E0375, NULL, E0059, E0098, E0052, NULL, NULL, E0037 ) 0.3333333333333333, 0.3333333333333333, 0.3333333333333333;
    ( NULL, E0068, E0102, E0375, NULL, E0059, E0098, E0052, NULL, NULL, NULL ) 0.3333333333333333, 0.3333333333333333, 0.3333333333333333;
    ( NULL, E0068, E0102, E0375, NULL, E0059, E0098, NULL, NULL, NULL, E0032 ) 0.3333333333333333, 0.3333333333333333, 0.3333333333333333;
    ( NULL, E0068, E0102, E0375, NULL, E0059, E0098, NULL, NULL, NULL, E0037 ) 0.3333333333333333, 0.3333333333333333, 0.3333333333333333;
    ( NULL, E0068, E0102, E0375, NULL, E0059, E0098, NULL, NULL, NULL, NULL ) 0.3333333333333333, 0.3333333333333333, 0.3333333333333333;
    ( NULL, E0068, E0102, E0375, NULL, E0059, NULL, E0045, NULL, NULL, E0032 ) 0.3333333333333333, 0.3333333333333333, 0.3333333333333333;
    ( NULL, E0068, E0102, E0375, NULL, E0059, NULL, E0045, NULL, NULL, E0037 ) 0.3333333333333333, 0.3333333333333333, 0.3333333333333333;
    ( NULL, E0068, E0102, E0375, NULL, E0059, NULL, E0045, NULL, NULL, NULL ) 0.3333333333333333, 0.3333333333333333, 0.3333333333333333;
    ( NULL, E0068, E0102, E0375, NULL, E0059, NULL, E0052, NULL, NULL, E0032 ) 0.3333333333333333, 0.3333333333333333, 0.3333333333333333;
    ( NULL, E0068, E0102, E0375, NULL, E0059, NULL, E0052, NULL, NULL, E0037 ) 0.3333333333333333, 0.3333333333333333, 0.3333333333333333;
    ( NULL, E0068, E0102, E0375, NULL, E0059, NULL, E0052, NULL, NULL, NULL ) 0.3333333333333333, 0.3333333333333333, 0.3333333333333333;
    ( NULL, E0068, E0102, E0375, NULL, E0059, NULL, NULL, NULL, NULL, E0032 ) 0.3333333333333333, 0.3333333333333333, 0.3333333333333333;
    ( NULL, E0068, E0102, E0375, NULL, E0059, NULL, NULL, NULL, NULL, E0037 ) 0.3333333333333333, 0.3333333333333333, 0.3333333333333333;
    ( NULL, E0068, E0102, E0375, NULL, E0059, NULL, NULL, NULL, NULL, NULL ) 0.3333333333333333, 0.3333333333333333, 0.3333333333333333;
    ( NULL, E0068, E0102, E0375, NULL, NULL, E0098, E0045, NULL, NULL, E0032 ) 0.3333333333333333, 0.3333333333333333, 0.3333333333333333;
    ( NULL, E0068, E0102, E0375, NULL, NULL, E0098, E0045, NULL, NULL, E0037 ) 0.3333333333333333, 0.3333333333333333, 0.3333333333333333;
    ( NULL, E0068, E0102, E0375, NULL, NULL, E0098, E0045, NULL, NULL, NULL ) 0.3333333333333333, 0.3333333333333333, 0.3333333333333333;
    ( NULL, E0068, E0102, E0375, NULL, NULL, E0098, E0052, NULL, NULL, E0032 ) 0.3333333333333333, 0.3333333333333333, 0.3333333333333333;
    ( NULL, E0068, E0102, E0375, NULL, NULL, E0098, E0052, NULL, NULL, E0037 ) 0.3333333333333333, 0.3333333333333333, 0.3333333333333333;
    ( NULL, E0068, E0102, E0375, NULL, NULL, E0098, E0052, NULL, NULL, NULL ) 0.3333333333333333, 0.3333333333333333, 0.3333333333333333;
    ( NULL, E0068, E0102, E0375, NULL, NULL, E0098, NULL, NULL, NULL, E0032 ) 0.3333333333333333, 0.3333333333333333, 0.3333333333333333;
    ( NULL, E0068, E0102, E0375, NULL, NULL, E0098, NULL, NULL, NULL, E0037 ) 0.3333333333333333, 0.3333333333333333, 0.3333333333333333;
    ( NULL, E0068, E0102, E0375, NULL, NULL, E0098, NULL, NULL, NULL, NULL ) 0.3333333333333333, 0.3333333333333333, 0.3333333333333333;
    ( NULL, E0068, E0102, E0375, NULL, NULL, NULL, E0045, NULL, NULL, E0032 ) 0.3333333333333333, 0.3333333333333333, 0.3333333333333333;
    ( NULL, E0068, E0102, E0375, NULL, NULL, NULL, E0045, NULL, NULL, E0037 ) 0.3333333333333333, 0.3333333333333333, 0.3333333333333333;
    ( NULL, E0068, E0102, E0375, NULL, NULL, NULL, E0045, NULL, NULL, NULL ) 0.3333333333333333, 0.3333333333333333, 0.3333333333333333;
    ( NULL, E0068, E0102, E0375, NULL, NULL, NULL, E0052, NULL, NULL, E0032 ) 0.3333333333333333, 0.3333333333333333, 0.3333333333333333;
    ( NULL, E0068, E0102, E0375, NULL, NULL, NULL, E0052, NULL, NULL, E0037 ) 0.3333333333333333, 0.3333333333333333, 0.3333333333333333;
    ( NULL, E0068, E0102, E0375, NULL, NULL, NULL, E0052, NULL, NULL, NULL ) 0.3333333333333333, 0.3333333333333333, 0.3333333333333333;
    ( NULL, E0068, E0102, E0375, NULL, NULL, NULL, NULL, NULL, NULL, E0032 ) 0.3333333333333333, 0.3333333333333333, 0.3333333333333333;
    ( NULL, E0068, E0102, E0375, NULL, NULL, NULL, NULL, NULL, NULL, E0037 ) 0.3333333333333333, 0.3333333333333333, 0.3333333333333333;
    ( NULL, E0068, E0102, E0375, NULL, NULL, NULL, NULL, NULL, NULL, NULL ) 0.3333333333333333, 0.3333333333333333, 0.3333333333333333;
    ( NULL, E0068, E0102, E0377, E0092, E0054, E0098, E0045, NULL, NULL, E0032 ) 0.3333333333333333, 0.3333333333333333, 0.3333333333333333;
    ( NULL, E0068, E0102, E0377, E0092, E0054, E0098, E0045, NULL, NULL, E0037 ) 0.3333333333333333, 0.3333333333333333, 0.3333333333333333;
    ( NULL, E0068, E0102, E0377, E0092, E0054, E0098, E0045, NULL, NULL, NULL ) 0.3333333333333333, 0.3333333333333333, 0.3333333333333333;
    ( NULL, E0068, E0102, E0377, E0092, E0054, E0098, E0052, NULL, NULL, E0032 ) 0.3333333333333333, 0.3333333333333333, 0.3333333333333333;
    ( NULL, E0068, E0102, E0377, E0092, E0054, E0098, E0052, NULL, NULL, E0037 ) 0.3333333333333333, 0.3333333333333333, 0.3333333333333333;
    ( NULL, E0068, E0102, E0377, E0092, E0054, E0098, E0052, NULL, NULL, NULL ) 0.3333333333333333, 0.3333333333333333, 0.3333333333333333;
    ( NULL, E0068, E0102, E0377, E0092, E0054, E0098, NULL, NULL, NULL, E0032 ) 0.3333333333333333, 0.3333333333333333, 0.3333333333333333;
    ( NULL, E0068, E0102, E0377, E0092, E0054, E0098, NULL, NULL, NULL, E0037 ) 0.3333333333333333, 0.3333333333333333, 0.3333333333333333;
    ( NULL, E0068, E0102, E0377, E0092, E0054, E0098, NULL, NULL, NULL, NULL ) 0.3333333333333333, 0.3333333333333333, 0.3333333333333333;
    ( NULL, E0068, E0102, E0377, E0092, E0054, NULL, E0045, NULL, NULL, E0032 ) 0.3333333333333333, 0.3333333333333333, 0.3333333333333333;
    ( NULL, E0068, E0102, E0377, E0092, E0054, NULL, E0045, NULL, NULL, E0037 ) 0.3333333333333333, 0.3333333333333333, 0.3333333333333333;
    ( NULL, E0068, E0102, E0377, E0092, E0054, NULL, E0045, NULL, NULL, NULL ) 0.3333333333333333, 0.3333333333333333, 0.3333333333333333;
    ( NULL, E0068, E0102, E0377, E0092, E0054, NULL, E0052, NULL, NULL, E0032 ) 0.3333333333333333, 0.3333333333333333, 0.3333333333333333;
    ( NULL, E0068, E0102, E0377, E0092, E0054, NULL, E0052, NULL, NULL, E0037 ) 0.3333333333333333, 0.3333333333333333, 0.3333333333333333;
    ( NULL, E0068, E0102, E0377, E0092, E0054, NULL, E0052, NULL, NULL, NULL ) 0.3333333333333333, 0.3333333333333333, 0.3333333333333333;
    ( NULL, E0068, E0102, E0377, E0092, E0054, NULL, NULL, NULL, NULL, E0032 ) 0.3333333333333333, 0.3333333333333333, 0.3333333333333333;
    ( NULL, E0068, E0102, E0377, E0092, E0054, NULL, NULL, NULL, NULL, E0037 ) 0.3333333333333333, 0.3333333333333333, 0.3333333333333333;
    ( NULL, E0068, E0102, E0377, E0092, E0054, NULL, NULL, NULL, NULL, NULL ) 0.3333333333333333, 0.3333333333333333, 0.3333333333333333;
    ( NULL, E0068, E0102, E0377, E0092, E0059, E0098, E0045, NULL, NULL, E0032 ) 0.3333333333333333, 0.3333333333333333, 0.3333333333333333;
    ( NULL, E0068, E0102, E0377, E0092, E0059, E0098, E0045, NULL, NULL, E0037 ) 0.3333333333333333, 0.3333333333333333, 0.3333333333333333;
    ( NULL, E0068, E0102, E0377, E0092, E0059, E0098, E0045, NULL, NULL, NULL ) 0.3333333333333333, 0.3333333333333333, 0.3333333333333333;
    ( NULL, E0068, E0102, E0377, E0092, E0059, E0098, E0052, NULL, NULL, E0032 ) 0.3333333333333333, 0.3333333333333333, 0.3333333333333333;
    ( NULL, E0068, E0102, E0377, E0092, E0059, E0098, E0052, NULL, NULL, E0037 ) 0.3333333333333333, 0.3333333333333333, 0.3333333333333333;
    ( NULL, E0068, E0102, E0377, E0092, E0059, E0098, E0052, NULL, NULL, NULL ) 0.3333333333333333, 0.3333333333333333, 0.3333333333333333;
    ( NULL, E0068, E0102, E0377, E0092, E0059, E0098, NULL, NULL, NULL, E0032 ) 0.3333333333333333, 0.3333333333333333, 0.3333333333333333;
    ( NULL, E0068, E0102, E0377, E0092, E0059, E0098, NULL, NULL, NULL, E0037 ) 0.3333333333333333, 0.3333333333333333, 0.3333333333333333;
    ( NULL, E0068, E0102, E0377, E0092, E0059, E0098, NULL, NULL, NULL, NULL ) 0.3333333333333333, 0.3333333333333333, 0.3333333333333333;
    ( NULL, E0068, E0102, E0377, E0092, E0059, NULL, E0045, NULL, NULL, E0032 ) 0.3333333333333333, 0.3333333333333333, 0.3333333333333333;
    ( NULL, E0068, E0102, E0377, E0092, E0059, NULL, E0045, NULL, NULL, E0037 ) 0.3333333333333333, 0.3333333333333333, 0.3333333333333333;
    ( NULL, E0068, E0102, E0377, E0092, E0059, NULL, E0045, NULL, NULL, NULL ) 0.3333333333333333, 0.3333333333333333, 0.3333333333333333;
    ( NULL, E0068, E0102, E0377, E0092, E0059, NULL, E0052, NULL, NULL, E0032 ) 0.3333333333333333, 0.3333333333333333, 0.3333333333333333;
    ( NULL, E0068, E0102, E0377, E0092, E0059, NULL, E0052, NULL, NULL, E0037 ) 0.3333333333333333, 0.3333333333333333, 0.3333333333333333;
    ( NULL, E0068, E0102, E0377, E0092, E0059, NULL, E0052, NULL, NULL, NULL ) 0.3333333333333333, 0.3333333333333333, 0.3333333333333333;
    ( NULL, E0068, E0102, E0377, E0092, E0059, NULL, NULL, NULL, NULL, E0032 ) 0.3333333333333333, 0.3333333333333333, 0.3333333333333333;
    ( NULL, E0068, E0102, E0377, E0092, E0059, NULL, NULL, NULL, NULL, E0037 ) 0.3333333333333333, 0.3333333333333333, 0.3333333333333333;
    ( NULL, E0068, E0102, E0377, E0092, E0059, NULL, NULL, NULL, NULL, NULL ) 0.3333333333333333, 0.3333333333333333, 0.3333333333333333;
    ( NULL, E0068, E0102, E0377, E0092, NULL, E0098, E0045, NULL, NULL, E0032 ) 0.3333333333333333, 0.3333333333333333, 0.3333333333333333;
    ( NULL, E0068, E0102, E0377, E0092, NULL, E0098, E0045, NULL, NULL, E0037 ) 0.3333333333333333, 0.3333333333333333, 0.3333333333333333;
    ( NULL, E0068, E0102, E0377, E0092, NULL, E0098, E0045, NULL, NULL, NULL ) 0.3333333333333333, 0.3333333333333333, 0.3333333333333333;
    ( NULL, E0068, E0102, E0377, E0092, NULL, E0098, E0052, NULL, NULL, E0032 ) 0.3333333333333333, 0.3333333333333333, 0.3333333333333333;
    ( NULL, E0068, E0102, E0377, E0092, NULL, E0098, E0052, NULL, NULL, E0037 ) 0.3333333333333333, 0.3333333333333333, 0.3333333333333333;
    ( NULL, E0068, E0102, E0377, E0092, NULL, E0098, E0052, NULL, NULL, NULL ) 0.3333333333333333, 0.3333333333333333, 0.3333333333333333;
    ( NULL, E0068, E0102, E0377, E0092, NULL, E0098, NULL, NULL, NULL, E0032 ) 0.3333333333333333, 0.3333333333333333, 0.3333333333333333;
    ( NULL, E0068, E0102, E0377, E0092, NULL, E0098, NULL, NULL, NULL, E0037 ) 0.3333333333333333, 0.3333333333333333, 0.3333333333333333;
    ( NULL, E0068, E0102, E0377, E0092, NULL, E0098, NULL, NULL, NULL, NULL ) 0.3333333333333333, 0.3333333333333333, 0.3333333333333333;
    ( NULL, E0068, E0102, E0377, E0092, NULL, NULL, E0045, NULL, NULL, E0032 ) 0.3333333333333333, 0.3333333333333333, 0.3333333333333333;
    ( NULL, E0068, E0102, E0377, E0092, NULL, NULL, E0045, NULL, NULL, E0037 ) 0.3333333333333333, 0.3333333333333333, 0.3333333333333333;
    ( NULL, E0068, E0102, E0377, E0092, NULL, NULL, E0045, NULL, NULL, NULL ) 0.3333333333333333, 0.3333333333333333, 0.3333333333333333;
    ( NULL, E0068, E0102, E0377, E0092, NULL, NULL, E0052, NULL, NULL, E0032 ) 0.3333333333333333, 0.3333333333333333, 0.3333333333333333;
    ( NULL, E0068, E0102, E0377, E0092, NULL, NULL, E0052, NULL, NULL, E0037 ) 0.3333333333333333, 0.3333333333333333, 0.3333333333333333;
    ( NULL, E0068, E0102, E0377, E0092, NULL, NULL, E0052, NULL, NULL, NULL ) 0.3333333333333333, 0.3333333333333333, 0.3333333333333333;
    ( NULL, E0068, E0102, E0377, E0092, NULL, NULL, NULL, NULL, NULL, E0032 ) 0.3333333333333333, 0.3333333333333333, 0.3333333333333333;
    ( NULL, E0068, E0102, E0377, E0092, NULL, NULL, NULL, NULL, NULL, E0037 ) 0.3333333333333333, 0.3333333333333333, 0.3333333333333333;
    ( NULL, E0068, E0102, E0377, E0092, NULL, NULL, NULL, NULL, NULL, NULL ) 0.3333333333333333, 0.3333333333333333, 0.3333333333333333;
    ( NULL, E0068, E0102, E0377, NULL, E0054, E0098, E0045, NULL, NULL, E0032 ) 0.3333333333333333, 0.3333333333333333, 0.3333333333333333;
    ( NULL, E0068, E0102, E0377, NULL, E0054, E0098, E0045, NULL, NULL, E0037 ) 0.3333333333333333, 0.3333333333333333, 0.3333333333333333;
    ( NULL, E0068, E0102, E0377, NULL, E0054, E0098, E0045, NULL, NULL, NULL ) 0.3333333333333333, 0.3333333333333333, 0.3333333333333333;
    ( NULL, E0068, E0102, E0377, NULL, E0054, E0098, E0052, NULL, NULL, E0032 ) 0.3333333333333333, 0.3333333333333333, 0.3333333333333333;
    ( NULL, E0068, E0102, E0377, NULL, E0054, E0098, E0052, NULL, NULL, E0037 ) 0.3333333333333333, 0.3333333333333333, 0.3333333333333333;
    ( NULL, E0068, E0102, E0377, NULL, E0054, E0098, E0052, NULL, NULL, NULL ) 0.3333333333333333, 0.3333333333333333, 0.3333333333333333;
    ( NULL, E0068, E0102, E0377, NULL, E0054, E0098, NULL, NULL, NULL, E0032 ) 0.3333333333333333, 0.3333333333333333, 0.3333333333333333;
    ( NULL, E0068, E0102, E0377, NULL, E0054, E0098, NULL, NULL, NULL, E0037 ) 0.3333333333333333, 0.3333333333333333, 0.3333333333333333;
    ( NULL, E0068, E0102, E0377, NULL, E0054, E0098, NULL, NULL, NULL, NULL ) 0.3333333333333333, 0.3333333333333333, 0.3333333333333333;
    ( NULL, E0068, E0102, E0377, NULL, E0054, NULL, E0045, NULL, NULL, E0032 ) 0.3333333333333333, 0.3333333333333333, 0.3333333333333333;
    ( NULL, E0068, E0102, E0377, NULL, E0054, NULL, E0045, NULL, NULL, E0037 ) 0.3333333333333333, 0.3333333333333333, 0.3333333333333333;
    ( NULL, E0068, E0102, E0377, NULL, E0054, NULL, E0045, NULL, NULL, NULL ) 0.3333333333333333, 0.3333333333333333, 0.3333333333333333;
    ( NULL, E0068, E0102, E0377, NULL, E0054, NULL, E0052, NULL, NULL, E0032 ) 0.3333333333333333, 0.3333333333333333, 0.3333333333333333;
    ( NULL, E0068, E0102, E0377, NULL, E0054, NULL, E0052, NULL, NULL, E0037 ) 0.3333333333333333, 0.3333333333333333, 0.3333333333333333;
    ( NULL, E0068, E0102, E0377, NULL, E0054, NULL, E0052, NULL, NULL, NULL ) 0.3333333333333333, 0.3333333333333333, 0.3333333333333333;
    ( NULL, E0068, E0102, E0377, NULL, E0054, NULL, NULL, NULL, NULL, E0032 ) 0.3333333333333333, 0.3333333333333333, 0.3333333333333333;
    ( NULL, E0068, E0102, E0377, NULL, E0054, NULL, NULL, NULL, NULL, E0037 ) 0.3333333333333333, 0.3333333333333333, 0.3333333333333333;
    ( NULL, E0068, E0102, E0377, NULL, E0054, NULL, NULL, NULL, NULL, NULL ) 0.3333333333333333, 0.3333333333333333, 0.3333333333333333;
    ( NULL, E0068, E0102, E0377, NULL, E0059, E0098, E0045, NULL, NULL, E0032 ) 0.3333333333333333, 0.3333333333333333, 0.3333333333333333;
    ( NULL, E0068, E0102, E0377, NULL, E0059, E0098, E0045, NULL, NULL, E0037 ) 0.3333333333333333, 0.3333333333333333, 0.3333333333333333;
    ( NULL, E0068, E0102, E0377, NULL, E0059, E0098, E0045, NULL, NULL, NULL ) 0.3333333333333333, 0.3333333333333333, 0.3333333333333333;
    ( NULL, E0068, E0102, E0377, NULL, E0059, E0098, E0052, NULL, NULL, E0032 ) 0.3333333333333333, 0.3333333333333333, 0.3333333333333333;
    ( NULL, E0068, E0102, E0377, NULL, E0059, E0098, E0052, NULL, NULL, E0037 ) 0.3333333333333333, 0.3333333333333333, 0.3333333333333333;
    ( NULL, E0068, E0102, E0377, NULL, E0059, E0098, E0052, NULL, NULL, NULL ) 0.3333333333333333, 0.3333333333333333, 0.3333333333333333;
    ( NULL, E0068, E0102, E0377, NULL, E0059, E0098, NULL, NULL, NULL, E0032 ) 0.3333333333333333, 0.3333333333333333, 0.3333333333333333;
    ( NULL, E0068, E0102, E0377, NULL, E0059, E0098, NULL, NULL, NULL, E0037 ) 0.3333333333333333, 0.3333333333333333, 0.3333333333333333;
    ( NULL, E0068, E0102, E0377, NULL, E0059, E0098, NULL, NULL, NULL, NULL ) 0.3333333333333333, 0.3333333333333333, 0.3333333333333333;
    ( NULL, E0068, E0102, E0377, NULL, E0059, NULL, E0045, NULL, NULL, E0032 ) 0.3333333333333333, 0.3333333333333333, 0.3333333333333333;
    ( NULL, E0068, E0102, E0377, NULL, E0059, NULL, E0045, NULL, NULL, E0037 ) 0.3333333333333333, 0.3333333333333333, 0.3333333333333333;
    ( NULL, E0068, E0102, E0377, NULL, E0059, NULL, E0045, NULL, NULL, NULL ) 0.3333333333333333, 0.3333333333333333, 0.3333333333333333;
    ( NULL, E0068, E0102, E0377, NULL, E0059, NULL, E0052, NULL, NULL, E0032 ) 0.3333333333333333, 0.3333333333333333, 0.3333333333333333;
    ( NULL, E0068, E0102, E0377, NULL, E0059, NULL, E0052, NULL, NULL, E0037 ) 0.3333333333333333, 0.3333333333333333, 0.3333333333333333;
    ( NULL, E0068, E0102, E0377, NULL, E0059, NULL, E0052, NULL, NULL, NULL ) 0.3333333333333333, 0.3333333333333333, 0.3333333333333333;
    ( NULL, E0068, E0102, E0377, NULL, E0059, NULL, NULL, NULL, NULL, E0032 ) 0.3333333333333333, 0.3333333333333333, 0.3333333333333333;
    ( NULL, E0068, E0102, E0377, NULL, E0059, NULL, NULL, NULL, NULL, E0037 ) 0.3333333333333333, 0.3333333333333333, 0.3333333333333333;
    ( NULL, E0068, E0102, E0377, NULL, E0059, NULL, NULL, NULL, NULL, NULL ) 0.3333333333333333, 0.3333333333333333, 0.3333333333333333;
    ( NULL, E0068, E0102, E0377, NULL, NULL, E0098, E0045, NULL, NULL, E0032 ) 0.3333333333333333, 0.3333333333333333, 0.3333333333333333;
    ( NULL, E0068, E0102, E0377, NULL, NULL, E0098, E0045, NULL, NULL, E0037 ) 0.3333333333333333, 0.3333333333333333, 0.3333333333333333;
    ( NULL, E0068, E0102, E0377, NULL, NULL, E0098, E0045, NULL, NULL, NULL ) 0.3333333333333333, 0.3333333333333333, 0.3333333333333333;
    ( NULL, E0068, E0102, E0377, NULL, NULL, E0098, E0052, NULL, NULL, E0032 ) 0.3333333333333333, 0.3333333333333333, 0.3333333333333333;
    ( NULL, E0068, E0102, E0377, NULL, NULL, E0098, E0052, NULL, NULL, E0037 ) 0.3333333333333333, 0.3333333333333333, 0.3333333333333333;
    ( NULL, E0068, E0102, E0377, NULL, NULL, E0098, E0052, NULL, NULL, NULL ) 0.3333333333333333, 0.3333333333333333, 0.3333333333333333;
    ( NULL, E0068, E0102, E0377, NULL, NULL, E0098, NULL, NULL, NULL, E0032 ) 0.3333333333333333, 0.3333333333333333, 0.3333333333333333;
    ( NULL, E0068, E0102, E0377, NULL, NULL, E0098, NULL, NULL, NULL, E0037 ) 0.3333333333333333, 0.3333333333333333, 0.3333333333333333;
    ( NULL, E0068, E0102, E0377, NULL, NULL, E0098, NULL, NULL, NULL, NULL ) 0.3333333333333333, 0.3333333333333333, 0.3333333333333333;
    ( NULL, E0068, E0102, E0377, NULL, NULL, NULL, E0045, NULL, NULL, E0032 ) 0.3333333333333333, 0.3333333333333333, 0.3333333333333333;
    ( NULL, E0068, E0102, E0377, NULL, NULL, NULL, E0045, NULL, NULL, E0037 ) 0.3333333333333333, 0.3333333333333333, 0.3333333333333333;
    ( NULL, E0068, E0102, E0377, NULL, NULL, NULL, E0045, NULL, NULL, NULL ) 0.3333333333333333, 0.3333333333333333, 0.3333333333333333;
    ( NULL, E0068, E0102, E0377, NULL, NULL, NULL, E0052, NULL, NULL, E0032 ) 0.3333333333333333, 0.3333333333333333, 0.3333333333333333;
    ( NULL, E0068, E0102, E0377, NULL, NULL, NULL, E0052, NULL, NULL, E0037 ) 0.3333333333333333, 0.3333333333333333, 0.3333333333333333;
    ( NULL, E0068, E0102, E0377, NULL, NULL, NULL, E0052, NULL, NULL, NULL ) 0.3333333333333333, 0.3333333333333333, 0.3333333333333333;
    ( NULL, E0068, E0102, E0377, NULL, NULL, NULL, NULL, NULL, NULL, E0032 ) 0.3333333333333333, 0.3333333333333333, 0.3333333333333333;
    ( NULL, E0068, E0102, E0377, NULL, NULL, NULL, NULL, NULL, NULL, E0037 ) 0.3333333333333333, 0.3333333333333333, 0.3333333333333333;
    ( NULL, E0068, E0102, E0377, NULL, NULL, NULL, NULL, NULL, NULL, NULL ) 0.3333333333333333, 0.3333333333333333, 0.3333333333333333;
    ( NULL, E0068, E0102, E0382, E0092, E0054, E0098, E0045, NULL, NULL, E0032 ) 0.3333333333333333, 0.3333333333333333, 0.3333333333333333;
    ( NULL, E0068, E0102, E0382, E0092, E0054, E0098, E0045, NULL, NULL, E0037 ) 0.3333333333333333, 0.3333333333333333, 0.3333333333333333;
    ( NULL, E0068, E0102, E0382, E0092, E0054, E0098, E0045, NULL, NULL, NULL ) 0.3333333333333333, 0.3333333333333333, 0.3333333333333333;
    ( NULL, E0068, E0102, E0382, E0092, E0054, E0098, E0052, NULL, NULL, E0032 ) 0.3333333333333333, 0.3333333333333333, 0.3333333333333333;
    ( NULL, E0068, E0102, E0382, E0092, E0054, E0098, E0052, NULL, NULL, E0037 ) 0.3333333333333333, 0.3333333333333333, 0.3333333333333333;
    ( NULL, E0068, E0102, E0382, E0092, E0054, E0098, E0052, NULL, NULL, NULL ) 0.3333333333333333, 0.3333333333333333, 0.3333333333333333;
    ( NULL, E0068, E0102, E0382, E0092, E0054, E0098, NULL, NULL, NULL, E0032 ) 0.3333333333333333, 0.3333333333333333, 0.3333333333333333;
    ( NULL, E0068, E0102, E0382, E0092, E0054, E0098, NULL, NULL, NULL, E0037 ) 0.3333333333333333, 0.3333333333333333, 0.3333333333333333;
    ( NULL, E0068, E0102, E0382, E0092, E0054, E0098, NULL, NULL, NULL, NULL ) 0.3333333333333333, 0.3333333333333333, 0.3333333333333333;
    ( NULL, E0068, E0102, E0382, E0092, E0054, NULL, E0045, NULL, NULL, E0032 ) 0.3333333333333333, 0.3333333333333333, 0.3333333333333333;
    ( NULL, E0068, E0102, E0382, E0092, E0054, NULL, E0045, NULL, NULL, E0037 ) 0.3333333333333333, 0.3333333333333333, 0.3333333333333333;
    ( NULL, E0068, E0102, E0382, E0092, E0054, NULL, E0045, NULL, NULL, NULL ) 0.3333333333333333, 0.3333333333333333, 0.3333333333333333;
    ( NULL, E0068, E0102, E0382, E0092, E0054, NULL, E0052, NULL, NULL, E0032 ) 0.3333333333333333, 0.3333333333333333, 0.3333333333333333;
    ( NULL, E0068, E0102, E0382, E0092, E0054, NULL, E0052, NULL, NULL, E0037 ) 0.3333333333333333, 0.3333333333333333, 0.3333333333333333;
    ( NULL, E0068, E0102, E0382, E0092, E0054, NULL, E0052, NULL, NULL, NULL ) 0.3333333333333333, 0.3333333333333333, 0.3333333333333333;
    ( NULL, E0068, E0102, E0382, E0092, E0054, NULL, NULL, NULL, NULL, E0032 ) 0.3333333333333333, 0.3333333333333333, 0.3333333333333333;
    ( NULL, E0068, E0102, E0382, E0092, E0054, NULL, NULL, NULL, NULL, E0037 ) 0.3333333333333333, 0.3333333333333333, 0.3333333333333333;
    ( NULL, E0068, E0102, E0382, E0092, E0054, NULL, NULL, NULL, NULL, NULL ) 0.3333333333333333, 0.3333333333333333, 0.3333333333333333;
    ( NULL, E0068, E0102, E0382, E0092, E0059, E0098, E0045, NULL, NULL, E0032 ) 0.3333333333333333, 0.3333333333333333, 0.3333333333333333;
    ( NULL, E0068, E0102, E0382, E0092, E0059, E0098, E0045, NULL, NULL, E0037 ) 0.3333333333333333, 0.3333333333333333, 0.3333333333333333;
    ( NULL, E0068, E0102, E0382, E0092, E0059, E0098, E0045, NULL, NULL, NULL ) 0.3333333333333333, 0.3333333333333333, 0.3333333333333333;
    ( NULL, E0068, E0102, E0382, E0092, E0059, E0098, E0052, NULL, NULL, E0032 ) 0.3333333333333333, 0.3333333333333333, 0.3333333333333333;
    ( NULL, E0068, E0102, E0382, E0092, E0059, E0098, E0052, NULL, NULL, E0037 ) 0.3333333333333333, 0.3333333333333333, 0.3333333333333333;
    ( NULL, E0068, E0102, E0382, E0092, E0059, E0098, E0052, NULL, NULL, NULL ) 0.3333333333333333, 0.3333333333333333, 0.3333333333333333;
    ( NULL, E0068, E0102, E0382, E0092, E0059, E0098, NULL, NULL, NULL, E0032 ) 0.3333333333333333, 0.3333333333333333, 0.3333333333333333;
    ( NULL, E0068, E0102, E0382, E0092, E0059, E0098, NULL, NULL, NULL, E0037 ) 0.3333333333333333, 0.3333333333333333, 0.3333333333333333;
    ( NULL, E0068, E0102, E0382, E0092, E0059, E0098, NULL, NULL, NULL, NULL ) 0.3333333333333333, 0.3333333333333333, 0.3333333333333333;
    ( NULL, E0068, E0102, E0382, E0092, E0059, NULL, E0045, NULL, NULL, E0032 ) 0.3333333333333333, 0.3333333333333333, 0.3333333333333333;
    ( NULL, E0068, E0102, E0382, E0092, E0059, NULL, E0045, NULL, NULL, E0037 ) 0.3333333333333333, 0.3333333333333333, 0.3333333333333333;
    ( NULL, E0068, E0102, E0382, E0092, E0059, NULL, E0045, NULL, NULL, NULL ) 0.3333333333333333, 0.3333333333333333, 0.3333333333333333;
    ( NULL, E0068, E0102, E0382, E0092, E0059, NULL, E0052, NULL, NULL, E0032 ) 0.3333333333333333, 0.3333333333333333, 0.3333333333333333;
    ( NULL, E0068, E0102, E0382, E0092, E0059, NULL, E0052, NULL, NULL, E0037 ) 0.3333333333333333, 0.3333333333333333, 0.3333333333333333;
    ( NULL, E0068, E0102, E0382, E0092, E0059, NULL, E0052, NULL, NULL, NULL ) 0.3333333333333333, 0.3333333333333333, 0.3333333333333333;
    ( NULL, E0068, E0102, E0382, E0092, E0059, NULL, NULL, NULL, NULL, E0032 ) 0.3333333333333333, 0.3333333333333333, 0.3333333333333333;
    ( NULL, E0068, E0102, E0382, E0092, E0059, NULL, NULL, NULL, NULL, E0037 ) 0.3333333333333333, 0.3333333333333333, 0.3333333333333333;
    ( NULL, E0068, E0102, E0382, E0092, E0059, NULL, NULL, NULL, NULL, NULL ) 0.3333333333333333, 0.3333333333333333, 0.3333333333333333;
    ( NULL, E0068, E0102, E0382, E0092, NULL, E0098, E0045, NULL, NULL, E0032 ) 0.3333333333333333, 0.3333333333333333, 0.3333333333333333;
    ( NULL, E0068, E0102, E0382, E0092, NULL, E0098, E0045, NULL, NULL, E0037 ) 0.3333333333333333, 0.3333333333333333, 0.3333333333333333;
    ( NULL, E0068, E0102, E0382, E0092, NULL, E0098, E0045, NULL, NULL, NULL ) 0.3333333333333333, 0.3333333333333333, 0.3333333333333333;
    ( NULL, E0068, E0102, E0382, E0092, NULL, E0098, E0052, NULL, NULL, E0032 ) 0.3333333333333333, 0.3333333333333333, 0.3333333333333333;
    ( NULL, E0068, E0102, E0382, E0092, NULL, E0098, E0052, NULL, NULL, E0037 ) 0.3333333333333333, 0.3333333333333333, 0.3333333333333333;
    ( NULL, E0068, E0102, E0382, E0092, NULL, E0098, E0052, NULL, NULL, NULL ) 0.3333333333333333, 0.3333333333333333, 0.3333333333333333;
    ( NULL, E0068, E0102, E0382, E0092, NULL, E0098, NULL, NULL, NULL, E0032 ) 0.3333333333333333, 0.3333333333333333, 0.3333333333333333;
    ( NULL, E0068, E0102, E0382, E0092, NULL, E0098, NULL, NULL, NULL, E0037 ) 0.3333333333333333, 0.3333333333333333, 0.3333333333333333;
    ( NULL, E0068, E0102, E0382, E0092, NULL, E0098, NULL, NULL, NULL, NULL ) 0.3333333333333333, 0.3333333333333333, 0.3333333333333333;
    ( NULL, E0068, E0102, E0382, E0092, NULL, NULL, E0045, NULL, NULL, E0032 ) 0.3333333333333333, 0.3333333333333333, 0.3333333333333333;
    ( NULL, E0068, E0102, E0382, E0092, NULL, NULL, E0045, NULL, NULL, E0037 ) 0.3333333333333333, 0.3333333333333333, 0.3333333333333333;
    ( NULL, E0068, E0102, E0382, E0092, NULL, NULL, E0045, NULL, NULL, NULL ) 0.3333333333333333, 0.3333333333333333, 0.3333333333333333;
    ( NULL, E0068, E0102, E0382, E0092, NULL, NULL, E0052, NULL, NULL, E0032 ) 0.3333333333333333, 0.3333333333333333, 0.3333333333333333;
    ( NULL, E0068, E0102, E0382, E0092, NULL, NULL, E0052, NULL, NULL, E0037 ) 0.3333333333333333, 0.3333333333333333, 0.3333333333333333;
    ( NULL, E0068, E0102, E0382, E0092, NULL, NULL, E0052, NULL, NULL, NULL ) 0.3333333333333333, 0.3333333333333333, 0.3333333333333333;
    ( NULL, E0068, E0102, E0382, E0092, NULL, NULL, NULL, NULL, NULL, E0032 ) 0.3333333333333333, 0.3333333333333333, 0.3333333333333333;
    ( NULL, E0068, E0102, E0382, E0092, NULL, NULL, NULL, NULL, NULL, E0037 ) 0.3333333333333333, 0.3333333333333333, 0.3333333333333333;
    ( NULL, E0068, E0102, E0382, E0092, NULL, NULL, NULL, NULL, NULL, NULL ) 0.3333333333333333, 0.3333333333333333, 0.3333333333333333;
    ( NULL, E0068, E0102, E0382, NULL, E0054, E0098, E0045, NULL, NULL, E0032 ) 0.3333333333333333, 0.3333333333333333, 0.3333333333333333;
    ( NULL, E0068, E0102, E0382, NULL, E0054, E0098, E0045, NULL, NULL, E0037 ) 0.3333333333333333, 0.3333333333333333, 0.3333333333333333;
    ( NULL, E0068, E0102, E0382, NULL, E0054, E0098, E0045, NULL, NULL, NULL ) 0.3333333333333333, 0.3333333333333333, 0.3333333333333333;
    ( NULL, E0068, E0102, E0382, NULL, E0054, E0098, E0052, NULL, NULL, E0032 ) 0.3333333333333333, 0.3333333333333333, 0.3333333333333333;
    ( NULL, E0068, E0102, E0382, NULL, E0054, E0098, E0052, NULL, NULL, E0037 ) 0.3333333333333333, 0.3333333333333333, 0.3333333333333333;
    ( NULL, E0068, E0102, E0382, NULL, E0054, E0098, E0052, NULL, NULL, NULL ) 0.3333333333333333, 0.3333333333333333, 0.3333333333333333;
    ( NULL, E0068, E0102, E0382, NULL, E0054, E0098, NULL, NULL, NULL, E0032 ) 0.3333333333333333, 0.3333333333333333, 0.3333333333333333;
    ( NULL, E0068, E0102, E0382, NULL, E0054, E0098, NULL, NULL, NULL, E0037 ) 0.3333333333333333, 0.3333333333333333, 0.3333333333333333;
    ( NULL, E0068, E0102, E0382, NULL, E0054, E0098, NULL, NULL, NULL, NULL ) 0.3333333333333333, 0.3333333333333333, 0.3333333333333333;
    ( NULL, E0068, E0102, E0382, NULL, E0054, NULL, E0045, NULL, NULL, E0032 ) 0.3333333333333333, 0.3333333333333333, 0.3333333333333333;
    ( NULL, E0068, E0102, E0382, NULL, E0054, NULL, E0045, NULL, NULL, E0037 ) 0.3333333333333333, 0.3333333333333333, 0.3333333333333333;
    ( NULL, E0068, E0102, E0382, NULL, E0054, NULL, E0045, NULL, NULL, NULL ) 0.3333333333333333, 0.3333333333333333, 0.3333333333333333;
    ( NULL, E0068, E0102, E0382, NULL, E0054, NULL, E0052, NULL, NULL, E0032 ) 0.3333333333333333, 0.3333333333333333, 0.3333333333333333;
    ( NULL, E0068, E0102, E0382, NULL, E0054, NULL, E0052, NULL, NULL, E0037 ) 0.3333333333333333, 0.3333333333333333, 0.3333333333333333;
    ( NULL, E0068, E0102, E0382, NULL, E0054, NULL, E0052, NULL, NULL, NULL ) 0.3333333333333333, 0.3333333333333333, 0.3333333333333333;
    ( NULL, E0068, E0102, E0382, NULL, E0054, NULL, NULL, NULL, NULL, E0032 ) 0.3333333333333333, 0.3333333333333333, 0.3333333333333333;
    ( NULL, E0068, E0102, E0382, NULL, E0054, NULL, NULL, NULL, NULL, E0037 ) 0.3333333333333333, 0.3333333333333333, 0.3333333333333333;
    ( NULL, E0068, E0102, E0382, NULL, E0054, NULL, NULL, NULL, NULL, NULL ) 0.3333333333333333, 0.3333333333333333, 0.3333333333333333;
    ( NULL, E0068, E0102, E0382, NULL, E0059, E0098, E0045, NULL, NULL, E0032 ) 0.3333333333333333, 0.3333333333333333, 0.3333333333333333;
    ( NULL, E0068, E0102, E0382, NULL, E0059, E0098, E0045, NULL, NULL, E0037 ) 0.3333333333333333, 0.3333333333333333, 0.3333333333333333;
    ( NULL, E0068, E0102, E0382, NULL, E0059, E0098, E0045, NULL, NULL, NULL ) 0.3333333333333333, 0.3333333333333333, 0.3333333333333333;
    ( NULL, E0068, E0102, E0382, NULL, E0059, E0098, E0052, NULL, NULL, E0032 ) 0.3333333333333333, 0.3333333333333333, 0.3333333333333333;
    ( NULL, E0068, E0102, E0382, NULL, E0059, E0098, E0052, NULL, NULL, E0037 ) 0.3333333333333333, 0.3333333333333333, 0.3333333333333333;
    ( NULL, E0068, E0102, E0382, NULL, E0059, E0098, E0052, NULL, NULL, NULL ) 0.3333333333333333, 0.3333333333333333, 0.3333333333333333;
    ( NULL, E0068, E0102, E0382, NULL, E0059, E0098, NULL, NULL, NULL, E0032 ) 0.3333333333333333, 0.3333333333333333, 0.3333333333333333;
    ( NULL, E0068, E0102, E0382, NULL, E0059, E0098, NULL, NULL, NULL, E0037 ) 0.3333333333333333, 0.3333333333333333, 0.3333333333333333;
    ( NULL, E0068, E0102, E0382, NULL, E0059, E0098, NULL, NULL, NULL, NULL ) 0.3333333333333333, 0.3333333333333333, 0.3333333333333333;
    ( NULL, E0068, E0102, E0382, NULL, E0059, NULL, E0045, NULL, NULL, E0032 ) 0.3333333333333333, 0.3333333333333333, 0.3333333333333333;
    ( NULL, E0068, E0102, E0382, NULL, E0059, NULL, E0045, NULL, NULL, E0037 ) 0.3333333333333333, 0.3333333333333333, 0.3333333333333333;
    ( NULL, E0068, E0102, E0382, NULL, E0059, NULL, E0045, NULL, NULL, NULL ) 0.3333333333333333, 0.3333333333333333, 0.3333333333333333;
    ( NULL, E0068, E0102, E0382, NULL, E0059, NULL, E0052, NULL, NULL, E0032 ) 0.3333333333333333, 0.3333333333333333, 0.3333333333333333;
    ( NULL, E0068, E0102, E0382, NULL, E0059, NULL, E0052, NULL, NULL, E0037 ) 0.3333333333333333, 0.3333333333333333, 0.3333333333333333;
    ( NULL, E0068, E0102, E0382, NULL, E0059, NULL, E0052, NULL, NULL, NULL ) 0.3333333333333333, 0.3333333333333333, 0.3333333333333333;
    ( NULL, E0068, E0102, E0382, NULL, E0059, NULL, NULL, NULL, NULL, E0032 ) 0.3333333333333333, 0.3333333333333333, 0.3333333333333333;
    ( NULL, E0068, E0102, E0382, NULL, E0059, NULL, NULL, NULL, NULL, E0037 ) 0.3333333333333333, 0.3333333333333333, 0.3333333333333333;
    ( NULL, E0068, E0102, E0382, NULL, E0059, NULL, NULL, NULL, NULL, NULL ) 0.3333333333333333, 0.3333333333333333, 0.3333333333333333;
    ( NULL, E0068, E0102, E0382, NULL, NULL, E0098, E0045, NULL, NULL, E0032 ) 0.3333333333333333, 0.3333333333333333, 0.3333333333333333;
    ( NULL, E0068, E0102, E0382, NULL, NULL, E0098, E0045, NULL, NULL, E0037 ) 0.3333333333333333, 0.3333333333333333, 0.3333333333333333;
    ( NULL, E0068, E0102, E0382, NULL, NULL, E0098, E0045, NULL, NULL, NULL ) 0.3333333333333333, 0.3333333333333333, 0.3333333333333333;
    ( NULL, E0068, E0102, E0382, NULL, NULL, E0098, E0052, NULL, NULL, E0032 ) 0.3333333333333333, 0.3333333333333333, 0.3333333333333333;
    ( NULL, E0068, E0102, E0382, NULL, NULL, E0098, E0052, NULL, NULL, E0037 ) 0.3333333333333333, 0.3333333333333333, 0.3333333333333333;
    ( NULL, E0068, E0102, E0382, NULL, NULL, E0098, E0052, NULL, NULL, NULL ) 0.3333333333333333, 0.3333333333333333, 0.3333333333333333;
    ( NULL, E0068, E0102, E0382, NULL, NULL, E0098, NULL, NULL, NULL, E0032 ) 0.3333333333333333, 0.3333333333333333, 0.3333333333333333;
    ( NULL, E0068, E0102, E0382, NULL, NULL, E0098, NULL, NULL, NULL, E0037 ) 0.3333333333333333, 0.3333333333333333, 0.3333333333333333;
    ( NULL, E0068, E0102, E0382, NULL, NULL, E0098, NULL, NULL, NULL, NULL ) 0.3333333333333333, 0.3333333333333333, 0.3333333333333333;
    ( NULL, E0068, E0102, E0382, NULL, NULL, NULL, E0045, NULL, NULL, E0032 ) 0.3333333333333333, 0.3333333333333333, 0.3333333333333333;
    ( NULL, E0068, E0102, E0382, NULL, NULL, NULL, E0045, NULL, NULL, E0037 ) 0.3333333333333333, 0.3333333333333333, 0.3333333333333333;
    ( NULL, E0068, E0102, E0382, NULL, NULL, NULL, E0045, NULL, NULL, NULL ) 0.3333333333333333, 0.3333333333333333, 0.3333333333333333;
    ( NULL, E0068, E0102, E0382, NULL, NULL, NULL, E0052, NULL, NULL, E0032 ) 0.3333333333333333, 0.3333333333333333, 0.3333333333333333;
    ( NULL, E0068, E0102, E0382, NULL, NULL, NULL, E0052, NULL, NULL, E0037 ) 0.3333333333333333, 0.3333333333333333, 0.3333333333333333;
    ( NULL, E0068, E0102, E0382, NULL, NULL, NULL, E0052, NULL, NULL, NULL ) 0.3333333333333333, 0.3333333333333333, 0.3333333333333333;
    ( NULL, E0068, E0102, E0382, NULL, NULL, NULL, NULL, NULL, NULL, E0032 ) 0.3333333333333333, 0.3333333333333333, 0.3333333333333333;
    ( NULL, E0068, E0102, E0382, NULL, NULL, NULL, NULL, NULL, NULL, E0037 ) 0.3333333333333333, 0.3333333333333333, 0.3333333333333333;
    ( NULL, E0068, E0102, E0382, NULL, NULL, NULL, NULL, NULL, NULL, NULL ) 0.3333333333333333, 0.3333333333333333, 0.3333333333333333;
    ( NULL, E0068, NULL, E0375, E0092, E0054, E0098, E0045, NULL, NULL, E0032 ) 0.3333333333333333, 0.3333333333333333, 0.3333333333333333;
    ( NULL, E0068, NULL, E0375, E0092, E0054, E0098, E0045, NULL, NULL, E0037 ) 0.3333333333333333, 0.3333333333333333, 0.3333333333333333;
    ( NULL, E0068, NULL, E0375, E0092, E0054, E0098, E0045, NULL, NULL, NULL ) 0.3333333333333333, 0.3333333333333333, 0.3333333333333333;
    ( NULL, E0068, NULL, E0375, E0092, E0054, E0098, E0052, NULL, NULL, E0032 ) 0.3333333333333333, 0.3333333333333333, 0.3333333333333333;
    ( NULL, E0068, NULL, E0375, E0092, E0054, E0098, E0052, NULL, NULL, E0037 ) 0.3333333333333333, 0.3333333333333333, 0.3333333333333333;
    ( NULL, E0068, NULL, E0375, E0092, E0054, E0098, E0052, NULL, NULL, NULL ) 0.3333333333333333, 0.3333333333333333, 0.3333333333333333;
    ( NULL, E0068, NULL, E0375, E0092, E0054, E0098, NULL, NULL, NULL, E0032 ) 0.3333333333333333, 0.3333333333333333, 0.3333333333333333;
    ( NULL, E0068, NULL, E0375, E0092, E0054, E0098, NULL, NULL, NULL, E0037 ) 0.3333333333333333, 0.3333333333333333, 0.3333333333333333;
    ( NULL, E0068, NULL, E0375, E0092, E0054, E0098, NULL, NULL, NULL, NULL ) 0.3333333333333333, 0.3333333333333333, 0.3333333333333333;
    ( NULL, E0068, NULL, E0375, E0092, E0054, NULL, E0045, NULL, NULL, E0032 ) 0.3333333333333333, 0.3333333333333333, 0.3333333333333333;
    ( NULL, E0068, NULL, E0375, E0092, E0054, NULL, E0045, NULL, NULL, E0037 ) 0.3333333333333333, 0.3333333333333333, 0.3333333333333333;
    ( NULL, E0068, NULL, E0375, E0092, E0054, NULL, E0045, NULL, NULL, NULL ) 0.3333333333333333, 0.3333333333333333, 0.3333333333333333;
    ( NULL, E0068, NULL, E0375, E0092, E0054, NULL, E0052, NULL, NULL, E0032 ) 0.3333333333333333, 0.3333333333333333, 0.3333333333333333;
    ( NULL, E0068, NULL, E0375, E0092, E0054, NULL, E0052, NULL, NULL, E0037 ) 0.3333333333333333, 0.3333333333333333, 0.3333333333333333;
    ( NULL, E0068, NULL, E0375, E0092, E0054, NULL, E0052, NULL, NULL, NULL ) 0.3333333333333333, 0.3333333333333333, 0.3333333333333333;
    ( NULL, E0068, NULL, E0375, E0092, E0054, NULL, NULL, NULL, NULL, E0032 ) 0.3333333333333333, 0.3333333333333333, 0.3333333333333333;
    ( NULL, E0068, NULL, E0375, E0092, E0054, NULL, NULL, NULL, NULL, E0037 ) 0.3333333333333333, 0.3333333333333333, 0.3333333333333333;
    ( NULL, E0068, NULL, E0375, E0092, E0054, NULL, NULL, NULL, NULL, NULL ) 0.3333333333333333, 0.3333333333333333, 0.3333333333333333;
    ( NULL, E0068, NULL, E0375, E0092, E0059, E0098, E0045, NULL, NULL, E0032 ) 0.3333333333333333, 0.3333333333333333, 0.3333333333333333;
    ( NULL, E0068, NULL, E0375, E0092, E0059, E0098, E0045, NULL, NULL, E0037 ) 0.3333333333333333, 0.3333333333333333, 0.3333333333333333;
    ( NULL, E0068, NULL, E0375, E0092, E0059, E0098, E0045, NULL, NULL, NULL ) 0.3333333333333333, 0.3333333333333333, 0.3333333333333333;
    ( NULL, E0068, NULL, E0375, E0092, E0059, E0098, E0052, NULL, NULL, E0032 ) 0.3333333333333333, 0.3333333333333333, 0.3333333333333333;
    ( NULL, E0068, NULL, E0375, E0092, E0059, E0098, E0052, NULL, NULL, E0037 ) 0.3333333333333333, 0.3333333333333333, 0.3333333333333333;
    ( NULL, E0068, NULL, E0375, E0092, E0059, E0098, E0052, NULL, NULL, NULL ) 0.3333333333333333, 0.3333333333333333, 0.3333333333333333;
    ( NULL, E0068, NULL, E0375, E0092, E0059, E0098, NULL, NULL, NULL, E0032 ) 0.3333333333333333, 0.3333333333333333, 0.3333333333333333;
    ( NULL, E0068, NULL, E0375, E0092, E0059, E0098, NULL, NULL, NULL, E0037 ) 0.3333333333333333, 0.3333333333333333, 0.3333333333333333;
    ( NULL, E0068, NULL, E0375, E0092, E0059, E0098, NULL, NULL, NULL, NULL ) 0.3333333333333333, 0.3333333333333333, 0.3333333333333333;
    ( NULL, E0068, NULL, E0375, E0092, E0059, NULL, E0045, NULL, NULL, E0032 ) 0.3333333333333333, 0.3333333333333333, 0.3333333333333333;
    ( NULL, E0068, NULL, E0375, E0092, E0059, NULL, E0045, NULL, NULL, E0037 ) 0.3333333333333333, 0.3333333333333333, 0.3333333333333333;
    ( NULL, E0068, NULL, E0375, E0092, E0059, NULL, E0045, NULL, NULL, NULL ) 0.3333333333333333, 0.3333333333333333, 0.3333333333333333;
    ( NULL, E0068, NULL, E0375, E0092, E0059, NULL, E0052, NULL, NULL, E0032 ) 0.3333333333333333, 0.3333333333333333, 0.3333333333333333;
    ( NULL, E0068, NULL, E0375, E0092, E0059, NULL, E0052, NULL, NULL, E0037 ) 0.3333333333333333, 0.3333333333333333, 0.3333333333333333;
    ( NULL, E0068, NULL, E0375, E0092, E0059, NULL, E0052, NULL, NULL, NULL ) 0.3333333333333333, 0.3333333333333333, 0.3333333333333333;
    ( NULL, E0068, NULL, E0375, E0092, E0059, NULL, NULL, NULL, NULL, E0032 ) 0.3333333333333333, 0.3333333333333333, 0.3333333333333333;
    ( NULL, E0068, NULL, E0375, E0092, E0059, NULL, NULL, NULL, NULL, E0037 ) 0.3333333333333333, 0.3333333333333333, 0.3333333333333333;
    ( NULL, E0068, NULL, E0375, E0092, E0059, NULL, NULL, NULL, NULL, NULL ) 0.3333333333333333, 0.3333333333333333, 0.3333333333333333;
    ( NULL, E0068, NULL, E0375, E0092, NULL, E0098, E0045, NULL, NULL, E0032 ) 0.3333333333333333, 0.3333333333333333, 0.3333333333333333;
    ( NULL, E0068, NULL, E0375, E0092, NULL, E0098, E0045, NULL, NULL, E0037 ) 0.3333333333333333, 0.3333333333333333, 0.3333333333333333;
    ( NULL, E0068, NULL, E0375, E0092, NULL, E0098, E0045, NULL, NULL, NULL ) 0.3333333333333333, 0.3333333333333333, 0.3333333333333333;
    ( NULL, E0068, NULL, E0375, E0092, NULL, E0098, E0052, NULL, NULL, E0032 ) 0.3333333333333333, 0.3333333333333333, 0.3333333333333333;
    ( NULL, E0068, NULL, E0375, E0092, NULL, E0098, E0052, NULL, NULL, E0037 ) 0.3333333333333333, 0.3333333333333333, 0.3333333333333333;
    ( NULL, E0068, NULL, E0375, E0092, NULL, E0098, E0052, NULL, NULL, NULL ) 0.3333333333333333, 0.3333333333333333, 0.3333333333333333;
    ( NULL, E0068, NULL, E0375, E0092, NULL, E0098, NULL, NULL, NULL, E0032 ) 0.3333333333333333, 0.3333333333333333, 0.3333333333333333;
    ( NULL, E0068, NULL, E0375, E0092, NULL, E0098, NULL, NULL, NULL, E0037 ) 0.3333333333333333, 0.3333333333333333, 0.3333333333333333;
    ( NULL, E0068, NULL, E0375, E0092, NULL, E0098, NULL, NULL, NULL, NULL ) 0.3333333333333333, 0.3333333333333333, 0.3333333333333333;
    ( NULL, E0068, NULL, E0375, E0092, NULL, NULL, E0045, NULL, NULL, E0032 ) 0.3333333333333333, 0.3333333333333333, 0.3333333333333333;
    ( NULL, E0068, NULL, E0375, E0092, NULL, NULL, E0045, NULL, NULL, E0037 ) 0.3333333333333333, 0.3333333333333333, 0.3333333333333333;
    ( NULL, E0068, NULL, E0375, E0092, NULL, NULL, E0045, NULL, NULL, NULL ) 0.3333333333333333, 0.3333333333333333, 0.3333333333333333;
    ( NULL, E0068, NULL, E0375, E0092, NULL, NULL, E0052, NULL, NULL, E0032 ) 0.3333333333333333, 0.3333333333333333, 0.3333333333333333;
    ( NULL, E0068, NULL, E0375, E0092, NULL, NULL, E0052, NULL, NULL, E0037 ) 0.3333333333333333, 0.3333333333333333, 0.3333333333333333;
    ( NULL, E0068, NULL, E0375, E0092, NULL, NULL, E0052, NULL, NULL, NULL ) 0.3333333333333333, 0.3333333333333333, 0.3333333333333333;
    ( NULL, E0068, NULL, E0375, E0092, NULL, NULL, NULL, NULL, NULL, E0032 ) 0.3333333333333333, 0.3333333333333333, 0.3333333333333333;
    ( NULL, E0068, NULL, E0375, E0092, NULL, NULL, NULL, NULL, NULL, E0037 ) 0.3333333333333333, 0.3333333333333333, 0.3333333333333333;
    ( NULL, E0068, NULL, E0375, E0092, NULL, NULL, NULL, NULL, NULL, NULL ) 0.3333333333333333, 0.3333333333333333, 0.3333333333333333;
    ( NULL, E0068, NULL, E0375, NULL, E0054, E0098, E0045, NULL, NULL, E0032 ) 0.3333333333333333, 0.3333333333333333, 0.3333333333333333;
    ( NULL, E0068, NULL, E0375, NULL, E0054, E0098, E0045, NULL, NULL, E0037 ) 0.3333333333333333, 0.3333333333333333, 0.3333333333333333;
    ( NULL, E0068, NULL, E0375, NULL, E0054, E0098, E0045, NULL, NULL, NULL ) 0.3333333333333333, 0.3333333333333333, 0.3333333333333333;
    ( NULL, E0068, NULL, E0375, NULL, E0054, E0098, E0052, NULL, NULL, E0032 ) 0.3333333333333333, 0.3333333333333333, 0.3333333333333333;
    ( NULL, E0068, NULL, E0375, NULL, E0054, E0098, E0052, NULL, NULL, E0037 ) 0.3333333333333333, 0.3333333333333333, 0.3333333333333333;
    ( NULL, E0068, NULL, E0375, NULL, E0054, E0098, E0052, NULL, NULL, NULL ) 0.3333333333333333, 0.3333333333333333, 0.3333333333333333;
    ( NULL, E0068, NULL, E0375, NULL, E0054, E0098, NULL, NULL, NULL, E0032 ) 0.3333333333333333, 0.3333333333333333, 0.3333333333333333;
    ( NULL, E0068, NULL, E0375, NULL, E0054, E0098, NULL, NULL, NULL, E0037 ) 0.3333333333333333, 0.3333333333333333, 0.3333333333333333;
    ( NULL, E0068, NULL, E0375, NULL, E0054, E0098, NULL, NULL, NULL, NULL ) 0.3333333333333333, 0.3333333333333333, 0.3333333333333333;
    ( NULL, E0068, NULL, E0375, NULL, E0054, NULL, E0045, NULL, NULL, E0032 ) 0.3333333333333333, 0.3333333333333333, 0.3333333333333333;
    ( NULL, E0068, NULL, E0375, NULL, E0054, NULL, E0045, NULL, NULL, E0037 ) 0.3333333333333333, 0.3333333333333333, 0.3333333333333333;
    ( NULL, E0068, NULL, E0375, NULL, E0054, NULL, E0045, NULL, NULL, NULL ) 0.3333333333333333, 0.3333333333333333, 0.3333333333333333;
    ( NULL, E0068, NULL, E0375, NULL, E0054, NULL, E0052, NULL, NULL, E0032 ) 0.3333333333333333, 0.3333333333333333, 0.3333333333333333;
    ( NULL, E0068, NULL, E0375, NULL, E0054, NULL, E0052, NULL, NULL, E0037 ) 0.3333333333333333, 0.3333333333333333, 0.3333333333333333;
    ( NULL, E0068, NULL, E0375, NULL, E0054, NULL, E0052, NULL, NULL, NULL ) 0.3333333333333333, 0.3333333333333333, 0.3333333333333333;
    ( NULL, E0068, NULL, E0375, NULL, E0054, NULL, NULL, NULL, NULL, E0032 ) 0.3333333333333333, 0.3333333333333333, 0.3333333333333333;
    ( NULL, E0068, NULL, E0375, NULL, E0054, NULL, NULL, NULL, NULL, E0037 ) 0.3333333333333333, 0.3333333333333333, 0.3333333333333333;
    ( NULL, E0068, NULL, E0375, NULL, E0054, NULL, NULL, NULL, NULL, NULL ) 0.3333333333333333, 0.3333333333333333, 0.3333333333333333;
    ( NULL, E0068, NULL, E0375, NULL, E0059, E0098, E0045, NULL, NULL, E0032 ) 0.3333333333333333, 0.3333333333333333, 0.3333333333333333;
    ( NULL, E0068, NULL, E0375, NULL, E0059, E0098, E0045, NULL, NULL, E0037 ) 0.3333333333333333, 0.3333333333333333, 0.3333333333333333;
    ( NULL, E0068, NULL, E0375, NULL, E0059, E0098, E0045, NULL, NULL, NULL ) 0.3333333333333333, 0.3333333333333333, 0.3333333333333333;
    ( NULL, E0068, NULL, E0375, NULL, E0059, E0098, E0052, NULL, NULL, E0032 ) 0.3333333333333333, 0.3333333333333333, 0.3333333333333333;
    ( NULL, E0068, NULL, E0375, NULL, E0059, E0098, E0052, NULL, NULL, E0037 ) 0.3333333333333333, 0.3333333333333333, 0.3333333333333333;
    ( NULL, E0068, NULL, E0375, NULL, E0059, E0098, E0052, NULL, NULL, NULL ) 0.3333333333333333, 0.3333333333333333, 0.3333333333333333;
    ( NULL, E0068, NULL, E0375, NULL, E0059, E0098, NULL, NULL, NULL, E0032 ) 0.3333333333333333, 0.3333333333333333, 0.3333333333333333;
    ( NULL, E0068, NULL, E0375, NULL, E0059, E0098, NULL, NULL, NULL, E0037 ) 0.3333333333333333, 0.3333333333333333, 0.3333333333333333;
    ( NULL, E0068, NULL, E0375, NULL, E0059, E0098, NULL, NULL, NULL, NULL ) 0.3333333333333333, 0.3333333333333333, 0.3333333333333333;
    ( NULL, E0068, NULL, E0375, NULL, E0059, NULL, E0045, NULL, NULL, E0032 ) 0.3333333333333333, 0.3333333333333333, 0.3333333333333333;
    ( NULL, E0068, NULL, E0375, NULL, E0059, NULL, E0045, NULL, NULL, E0037 ) 0.3333333333333333, 0.3333333333333333, 0.3333333333333333;
    ( NULL, E0068, NULL, E0375, NULL, E0059, NULL, E0045, NULL, NULL, NULL ) 0.3333333333333333, 0.3333333333333333, 0.3333333333333333;
    ( NULL, E0068, NULL, E0375, NULL, E0059, NULL, E0052, NULL, NULL, E0032 ) 0.3333333333333333, 0.3333333333333333, 0.3333333333333333;
    ( NULL, E0068, NULL, E0375, NULL, E0059, NULL, E0052, NULL, NULL, E0037 ) 0.3333333333333333, 0.3333333333333333, 0.3333333333333333;
    ( NULL, E0068, NULL, E0375, NULL, E0059, NULL, E0052, NULL, NULL, NULL ) 0.3333333333333333, 0.3333333333333333, 0.3333333333333333;
    ( NULL, E0068, NULL, E0375, NULL, E0059, NULL, NULL, NULL, NULL, E0032 ) 0.3333333333333333, 0.3333333333333333, 0.3333333333333333;
    ( NULL, E0068, NULL, E0375, NULL, E0059, NULL, NULL, NULL, NULL, E0037 ) 0.3333333333333333, 0.3333333333333333, 0.3333333333333333;
    ( NULL, E0068, NULL, E0375, NULL, E0059, NULL, NULL, NULL, NULL, NULL ) 0.3333333333333333, 0.3333333333333333, 0.3333333333333333;
    ( NULL, E0068, NULL, E0375, NULL, NULL, E0098, E0045, NULL, NULL, E0032 ) 0.3333333333333333, 0.3333333333333333, 0.3333333333333333;
    ( NULL, E0068, NULL, E0375, NULL, NULL, E0098, E0045, NULL, NULL, E0037 ) 0.3333333333333333, 0.3333333333333333, 0.3333333333333333;
    ( NULL, E0068, NULL, E0375, NULL, NULL, E0098, E0045, NULL, NULL, NULL ) 0.3333333333333333, 0.3333333333333333, 0.3333333333333333;
    ( NULL, E0068, NULL, E0375, NULL, NULL, E0098, E0052, NULL, NULL, E0032 ) 0.3333333333333333, 0.3333333333333333, 0.3333333333333333;
    ( NULL, E0068, NULL, E0375, NULL, NULL, E0098, E0052, NULL, NULL, E0037 ) 0.3333333333333333, 0.3333333333333333, 0.3333333333333333;
    ( NULL, E0068, NULL, E0375, NULL, NULL, E0098, E0052, NULL, NULL, NULL ) 0.3333333333333333, 0.3333333333333333, 0.3333333333333333;
    ( NULL, E0068, NULL, E0375, NULL, NULL, E0098, NULL, NULL, NULL, E0032 ) 0.3333333333333333, 0.3333333333333333, 0.3333333333333333;
    ( NULL, E0068, NULL, E0375, NULL, NULL, E0098, NULL, NULL, NULL, E0037 ) 0.3333333333333333, 0.3333333333333333, 0.3333333333333333;
    ( NULL, E0068, NULL, E0375, NULL, NULL, E0098, NULL, NULL, NULL, NULL ) 0.3333333333333333, 0.3333333333333333, 0.3333333333333333;
    ( NULL, E0068, NULL, E0375, NULL, NULL, NULL, E0045, NULL, NULL, E0032 ) 0.3333333333333333, 0.3333333333333333, 0.3333333333333333;
    ( NULL, E0068, NULL, E0375, NULL, NULL, NULL, E0045, NULL, NULL, E0037 ) 0.3333333333333333, 0.3333333333333333, 0.3333333333333333;
    ( NULL, E0068, NULL, E0375, NULL, NULL, NULL, E0045, NULL, NULL, NULL ) 0.3333333333333333, 0.3333333333333333, 0.3333333333333333;
    ( NULL, E0068, NULL, E0375, NULL, NULL, NULL, E0052, NULL, NULL, E0032 ) 0.3333333333333333, 0.3333333333333333, 0.3333333333333333;
    ( NULL, E0068, NULL, E0375, NULL, NULL, NULL, E0052, NULL, NULL, E0037 ) 0.3333333333333333, 0.3333333333333333, 0.3333333333333333;
    ( NULL, E0068, NULL, E0375, NULL, NULL, NULL, E0052, NULL, NULL, NULL ) 0.3333333333333333, 0.3333333333333333, 0.3333333333333333;
    ( NULL, E0068, NULL, E0375, NULL, NULL, NULL, NULL, NULL, NULL, E0032 ) 0.3333333333333333, 0.3333333333333333, 0.3333333333333333;
    ( NULL, E0068, NULL, E0375, NULL, NULL, NULL, NULL, NULL, NULL, E0037 ) 0.3333333333333333, 0.3333333333333333, 0.3333333333333333;
    ( NULL, E0068, NULL, E0375, NULL, NULL, NULL, NULL, NULL, NULL, NULL ) 0.3333333333333333, 0.3333333333333333, 0.3333333333333333;
    ( NULL, E0068, NULL, E0377, E0092, E0054, E0098, E0045, NULL, NULL, E0032 ) 0.3333333333333333, 0.3333333333333333, 0.3333333333333333;
    ( NULL, E0068, NULL, E0377, E0092, E0054, E0098, E0045, NULL, NULL, E0037 ) 0.3333333333333333, 0.3333333333333333, 0.3333333333333333;
    ( NULL, E0068, NULL, E0377, E0092, E0054, E0098, E0045, NULL, NULL, NULL ) 0.3333333333333333, 0.3333333333333333, 0.3333333333333333;
    ( NULL, E0068, NULL, E0377, E0092, E0054, E0098, E0052, NULL, NULL, E0032 ) 0.3333333333333333, 0.3333333333333333, 0.3333333333333333;
    ( NULL, E0068, NULL, E0377, E0092, E0054, E0098, E0052, NULL, NULL, E0037 ) 0.3333333333333333, 0.3333333333333333, 0.3333333333333333;
    ( NULL, E0068, NULL, E0377, E0092, E0054, E0098, E0052, NULL, NULL, NULL ) 0.3333333333333333, 0.3333333333333333, 0.3333333333333333;
    ( NULL, E0068, NULL, E0377, E0092, E0054, E0098, NULL, NULL, NULL, E0032 ) 0.3333333333333333, 0.3333333333333333, 0.3333333333333333;
    ( NULL, E0068, NULL, E0377, E0092, E0054, E0098, NULL, NULL, NULL, E0037 ) 0.3333333333333333, 0.3333333333333333, 0.3333333333333333;
    ( NULL, E0068, NULL, E0377, E0092, E0054, E0098, NULL, NULL, NULL, NULL ) 0.3333333333333333, 0.3333333333333333, 0.3333333333333333;
    ( NULL, E0068, NULL, E0377, E0092, E0054, NULL, E0045, NULL, NULL, E0032 ) 0.3333333333333333, 0.3333333333333333, 0.3333333333333333;
    ( NULL, E0068, NULL, E0377, E0092, E0054, NULL, E0045, NULL, NULL, E0037 ) 0.3333333333333333, 0.3333333333333333, 0.3333333333333333;
    ( NULL, E0068, NULL, E0377, E0092, E0054, NULL, E0045, NULL, NULL, NULL ) 0.3333333333333333, 0.3333333333333333, 0.3333333333333333;
    ( NULL, E0068, NULL, E0377, E0092, E0054, NULL, E0052, NULL, NULL, E0032 ) 0.3333333333333333, 0.3333333333333333, 0.3333333333333333;
    ( NULL, E0068, NULL, E0377, E0092, E0054, NULL, E0052, NULL, NULL, E0037 ) 0.3333333333333333, 0.3333333333333333, 0.3333333333333333;
    ( NULL, E0068, NULL, E0377, E0092, E0054, NULL, E0052, NULL, NULL, NULL ) 0.3333333333333333, 0.3333333333333333, 0.3333333333333333;
    ( NULL, E0068, NULL, E0377, E0092, E0054, NULL, NULL, NULL, NULL, E0032 ) 0.3333333333333333, 0.3333333333333333, 0.3333333333333333;
    ( NULL, E0068, NULL, E0377, E0092, E0054, NULL, NULL, NULL, NULL, E0037 ) 0.3333333333333333, 0.3333333333333333, 0.3333333333333333;
    ( NULL, E0068, NULL, E0377, E0092, E0054, NULL, NULL, NULL, NULL, NULL ) 0.3333333333333333, 0.3333333333333333, 0.3333333333333333;
    ( NULL, E0068, NULL, E0377, E0092, E0059, E0098, E0045, NULL, NULL, E0032 ) 0.3333333333333333, 0.3333333333333333, 0.3333333333333333;
    ( NULL, E0068, NULL, E0377, E0092, E0059, E0098, E0045, NULL, NULL, E0037 ) 0.3333333333333333, 0.3333333333333333, 0.3333333333333333;
    ( NULL, E0068, NULL, E0377, E0092, E0059, E0098, E0045, NULL, NULL, NULL ) 0.3333333333333333, 0.3333333333333333, 0.3333333333333333;
    ( NULL, E0068, NULL, E0377, E0092, E0059, E0098, E0052, NULL, NULL, E0032 ) 0.3333333333333333, 0.3333333333333333, 0.3333333333333333;
    ( NULL, E0068, NULL, E0377, E0092, E0059, E0098, E0052, NULL, NULL, E0037 ) 0.3333333333333333, 0.3333333333333333, 0.3333333333333333;
    ( NULL, E0068, NULL, E0377, E0092, E0059, E0098, E0052, NULL, NULL, NULL ) 0.3333333333333333, 0.3333333333333333, 0.3333333333333333;
    ( NULL, E0068, NULL, E0377, E0092, E0059, E0098, NULL, NULL, NULL, E0032 ) 0.3333333333333333, 0.3333333333333333, 0.3333333333333333;
    ( NULL, E0068, NULL, E0377, E0092, E0059, E0098, NULL, NULL, NULL, E0037 ) 0.3333333333333333, 0.3333333333333333, 0.3333333333333333;
    ( NULL, E0068, NULL, E0377, E0092, E0059, E0098, NULL, NULL, NULL, NULL ) 0.3333333333333333, 0.3333333333333333, 0.3333333333333333;
    ( NULL, E0068, NULL, E0377, E0092, E0059, NULL, E0045, NULL, NULL, E0032 ) 0.3333333333333333, 0.3333333333333333, 0.3333333333333333;
    ( NULL, E0068, NULL, E0377, E0092, E0059, NULL, E0045, NULL, NULL, E0037 ) 0.3333333333333333, 0.3333333333333333, 0.3333333333333333;
    ( NULL, E0068, NULL, E0377, E0092, E0059, NULL, E0045, NULL, NULL, NULL ) 0.3333333333333333, 0.3333333333333333, 0.3333333333333333;
    ( NULL, E0068, NULL, E0377, E0092, E0059, NULL, E0052, NULL, NULL, E0032 ) 0.3333333333333333, 0.3333333333333333, 0.3333333333333333;
    ( NULL, E0068, NULL, E0377, E0092, E0059, NULL, E0052, NULL, NULL, E0037 ) 0.3333333333333333, 0.3333333333333333, 0.3333333333333333;
    ( NULL, E0068, NULL, E0377, E0092, E0059, NULL, E0052, NULL, NULL, NULL ) 0.3333333333333333, 0.3333333333333333, 0.3333333333333333;
    ( NULL, E0068, NULL, E0377, E0092, E0059, NULL, NULL, NULL, NULL, E0032 ) 0.3333333333333333, 0.3333333333333333, 0.3333333333333333;
    ( NULL, E0068, NULL, E0377, E0092, E0059, NULL, NULL, NULL, NULL, E0037 ) 0.3333333333333333, 0.3333333333333333, 0.3333333333333333;
    ( NULL, E0068, NULL, E0377, E0092, E0059, NULL, NULL, NULL, NULL, NULL ) 0.3333333333333333, 0.3333333333333333, 0.3333333333333333;
    ( NULL, E0068, NULL, E0377, E0092, NULL, E0098, E0045, NULL, NULL, E0032 ) 0.3333333333333333, 0.3333333333333333, 0.3333333333333333;
    ( NULL, E0068, NULL, E0377, E0092, NULL, E0098, E0045, NULL, NULL, E0037 ) 0.3333333333333333, 0.3333333333333333, 0.3333333333333333;
    ( NULL, E0068, NULL, E0377, E0092, NULL, E0098, E0045, NULL, NULL, NULL ) 0.3333333333333333, 0.3333333333333333, 0.3333333333333333;
    ( NULL, E0068, NULL, E0377, E0092, NULL, E0098, E0052, NULL, NULL, E0032 ) 0.3333333333333333, 0.3333333333333333, 0.3333333333333333;
    ( NULL, E0068, NULL, E0377, E0092, NULL, E0098, E0052, NULL, NULL, E0037 ) 0.3333333333333333, 0.3333333333333333, 0.3333333333333333;
    ( NULL, E0068, NULL, E0377, E0092, NULL, E0098, E0052, NULL, NULL, NULL ) 0.3333333333333333, 0.3333333333333333, 0.3333333333333333;
    ( NULL, E0068, NULL, E0377, E0092, NULL, E0098, NULL, NULL, NULL, E0032 ) 0.3333333333333333, 0.3333333333333333, 0.3333333333333333;
    ( NULL, E0068, NULL, E0377, E0092, NULL, E0098, NULL, NULL, NULL, E0037 ) 0.3333333333333333, 0.3333333333333333, 0.3333333333333333;
    ( NULL, E0068, NULL, E0377, E0092, NULL, E0098, NULL, NULL, NULL, NULL ) 0.3333333333333333, 0.3333333333333333, 0.3333333333333333;
    ( NULL, E0068, NULL, E0377, E0092, NULL, NULL, E0045, NULL, NULL, E0032 ) 0.3333333333333333, 0.3333333333333333, 0.3333333333333333;
    ( NULL, E0068, NULL, E0377, E0092, NULL, NULL, E0045, NULL, NULL, E0037 ) 0.3333333333333333, 0.3333333333333333, 0.3333333333333333;
    ( NULL, E0068, NULL, E0377, E0092, NULL, NULL, E0045, NULL, NULL, NULL ) 0.3333333333333333, 0.3333333333333333, 0.3333333333333333;
    ( NULL, E0068, NULL, E0377, E0092, NULL, NULL, E0052, NULL, NULL, E0032 ) 0.3333333333333333, 0.3333333333333333, 0.3333333333333333;
    ( NULL, E0068, NULL, E0377, E0092, NULL, NULL, E0052, NULL, NULL, E0037 ) 0.3333333333333333, 0.3333333333333333, 0.3333333333333333;
    ( NULL, E0068, NULL, E0377, E0092, NULL, NULL, E0052, NULL, NULL, NULL ) 0.3333333333333333, 0.3333333333333333, 0.3333333333333333;
    ( NULL, E0068, NULL, E0377, E0092, NULL, NULL, NULL, NULL, NULL, E0032 ) 0.3333333333333333, 0.3333333333333333, 0.3333333333333333;
    ( NULL, E0068, NULL, E0377, E0092, NULL, NULL, NULL, NULL, NULL, E0037 ) 0.3333333333333333, 0.3333333333333333, 0.3333333333333333;
    ( NULL, E0068, NULL, E0377, E0092, NULL, NULL, NULL, NULL, NULL, NULL ) 0.3333333333333333, 0.3333333333333333, 0.3333333333333333;
    ( NULL, E0068, NULL, E0377, NULL, E0054, E0098, E0045, NULL, NULL, E0032 ) 0.3333333333333333, 0.3333333333333333, 0.3333333333333333;
    ( NULL, E0068, NULL, E0377, NULL, E0054, E0098, E0045, NULL, NULL, E0037 ) 0.3333333333333333, 0.3333333333333333, 0.3333333333333333;
    ( NULL, E0068, NULL, E0377, NULL, E0054, E0098, E0045, NULL, NULL, NULL ) 0.3333333333333333, 0.3333333333333333, 0.3333333333333333;
    ( NULL, E0068, NULL, E0377, NULL, E0054, E0098, E0052, NULL, NULL, E0032 ) 0.3333333333333333, 0.3333333333333333, 0.3333333333333333;
    ( NULL, E0068, NULL, E0377, NULL, E0054, E0098, E0052, NULL, NULL, E0037 ) 0.3333333333333333, 0.3333333333333333, 0.3333333333333333;
    ( NULL, E0068, NULL, E0377, NULL, E0054, E0098, E0052, NULL, NULL, NULL ) 0.3333333333333333, 0.3333333333333333, 0.3333333333333333;
    ( NULL, E0068, NULL, E0377, NULL, E0054, E0098, NULL, NULL, NULL, E0032 ) 0.3333333333333333, 0.3333333333333333, 0.3333333333333333;
    ( NULL, E0068, NULL, E0377, NULL, E0054, E0098, NULL, NULL, NULL, E0037 ) 0.3333333333333333, 0.3333333333333333, 0.3333333333333333;
    ( NULL, E0068, NULL, E0377, NULL, E0054, E0098, NULL, NULL, NULL, NULL ) 0.3333333333333333, 0.3333333333333333, 0.3333333333333333;
    ( NULL, E0068, NULL, E0377, NULL, E0054, NULL, E0045, NULL, NULL, E0032 ) 0.3333333333333333, 0.3333333333333333, 0.3333333333333333;
    ( NULL, E0068, NULL, E0377, NULL, E0054, NULL, E0045, NULL, NULL, E0037 ) 0.3333333333333333, 0.3333333333333333, 0.3333333333333333;
    ( NULL, E0068, NULL, E0377, NULL, E0054, NULL, E0045, NULL, NULL, NULL ) 0.3333333333333333, 0.3333333333333333, 0.3333333333333333;
    ( NULL, E0068, NULL, E0377, NULL, E0054, NULL, E0052, NULL, NULL, E0032 ) 0.3333333333333333, 0.3333333333333333, 0.3333333333333333;
    ( NULL, E0068, NULL, E0377, NULL, E0054, NULL, E0052, NULL, NULL, E0037 ) 0.3333333333333333, 0.3333333333333333, 0.3333333333333333;
    ( NULL, E0068, NULL, E0377, NULL, E0054, NULL, E0052, NULL, NULL, NULL ) 0.3333333333333333, 0.3333333333333333, 0.3333333333333333;
    ( NULL, E0068, NULL, E0377, NULL, E0054, NULL, NULL, NULL, NULL, E0032 ) 0.3333333333333333, 0.3333333333333333, 0.3333333333333333;
    ( NULL, E0068, NULL, E0377, NULL, E0054, NULL, NULL, NULL, NULL, E0037 ) 0.3333333333333333, 0.3333333333333333, 0.3333333333333333;
    ( NULL, E0068, NULL, E0377, NULL, E0054, NULL, NULL, NULL, NULL, NULL ) 0.3333333333333333, 0.3333333333333333, 0.3333333333333333;
    ( NULL, E0068, NULL, E0377, NULL, E0059, E0098, E0045, NULL, NULL, E0032 ) 0.3333333333333333, 0.3333333333333333, 0.3333333333333333;
    ( NULL, E0068, NULL, E0377, NULL, E0059, E0098, E0045, NULL, NULL, E0037 ) 0.3333333333333333, 0.3333333333333333, 0.3333333333333333;
    ( NULL, E0068, NULL, E0377, NULL, E0059, E0098, E0045, NULL, NULL, NULL ) 0.3333333333333333, 0.3333333333333333, 0.3333333333333333;
    ( NULL, E0068, NULL, E0377, NULL, E0059, E0098, E0052, NULL, NULL, E0032 ) 0.3333333333333333, 0.3333333333333333, 0.3333333333333333;
    ( NULL, E0068, NULL, E0377, NULL, E0059, E0098, E0052, NULL, NULL, E0037 ) 0.3333333333333333, 0.3333333333333333, 0.3333333333333333;
    ( NULL, E0068, NULL, E0377, NULL, E0059, E0098, E0052, NULL, NULL, NULL ) 0.3333333333333333, 0.3333333333333333, 0.3333333333333333;
    ( NULL, E0068, NULL, E0377, NULL, E0059, E0098, NULL, NULL, NULL, E0032 ) 0.3333333333333333, 0.3333333333333333, 0.3333333333333333;
    ( NULL, E0068, NULL, E0377, NULL, E0059, E0098, NULL, NULL, NULL, E0037 ) 0.3333333333333333, 0.3333333333333333, 0.3333333333333333;
    ( NULL, E0068, NULL, E0377, NULL, E0059, E0098, NULL, NULL, NULL, NULL ) 0.3333333333333333, 0.3333333333333333, 0.3333333333333333;
    ( NULL, E0068, NULL, E0377, NULL, E0059, NULL, E0045, NULL, NULL, E0032 ) 0.3333333333333333, 0.3333333333333333, 0.3333333333333333;
    ( NULL, E0068, NULL, E0377, NULL, E0059, NULL, E0045, NULL, NULL, E0037 ) 0.3333333333333333, 0.3333333333333333, 0.3333333333333333;
    ( NULL, E0068, NULL, E0377, NULL, E0059, NULL, E0045, NULL, NULL, NULL ) 0.3333333333333333, 0.3333333333333333, 0.3333333333333333;
    ( NULL, E0068, NULL, E0377, NULL, E0059, NULL, E0052, NULL, NULL, E0032 ) 0.3333333333333333, 0.3333333333333333, 0.3333333333333333;
    ( NULL, E0068, NULL, E0377, NULL, E0059, NULL, E0052, NULL, NULL, E0037 ) 0.3333333333333333, 0.3333333333333333, 0.3333333333333333;
    ( NULL, E0068, NULL, E0377, NULL, E0059, NULL, E0052, NULL, NULL, NULL ) 0.3333333333333333, 0.3333333333333333, 0.3333333333333333;
    ( NULL, E0068, NULL, E0377, NULL, E0059, NULL, NULL, NULL, NULL, E0032 ) 0.3333333333333333, 0.3333333333333333, 0.3333333333333333;
    ( NULL, E0068, NULL, E0377, NULL, E0059, NULL, NULL, NULL, NULL, E0037 ) 0.3333333333333333, 0.3333333333333333, 0.3333333333333333;
    ( NULL, E0068, NULL, E0377, NULL, E0059, NULL, NULL, NULL, NULL, NULL ) 0.3333333333333333, 0.3333333333333333, 0.3333333333333333;
    ( NULL, E0068, NULL, E0377, NULL, NULL, E0098, E0045, NULL, NULL, E0032 ) 0.3333333333333333, 0.3333333333333333, 0.3333333333333333;
    ( NULL, E0068, NULL, E0377, NULL, NULL, E0098, E0045, NULL, NULL, E0037 ) 0.3333333333333333, 0.3333333333333333, 0.3333333333333333;
    ( NULL, E0068, NULL, E0377, NULL, NULL, E0098, E0045, NULL, NULL, NULL ) 0.3333333333333333, 0.3333333333333333, 0.3333333333333333;
    ( NULL, E0068, NULL, E0377, NULL, NULL, E0098, E0052, NULL, NULL, E0032 ) 0.3333333333333333, 0.3333333333333333, 0.3333333333333333;
    ( NULL, E0068, NULL, E0377, NULL, NULL, E0098, E0052, NULL, NULL, E0037 ) 0.3333333333333333, 0.3333333333333333, 0.3333333333333333;
    ( NULL, E0068, NULL, E0377, NULL, NULL, E0098, E0052, NULL, NULL, NULL ) 0.3333333333333333, 0.3333333333333333, 0.3333333333333333;
    ( NULL, E0068, NULL, E0377, NULL, NULL, E0098, NULL, NULL, NULL, E0032 ) 0.3333333333333333, 0.3333333333333333, 0.3333333333333333;
    ( NULL, E0068, NULL, E0377, NULL, NULL, E0098, NULL, NULL, NULL, E0037 ) 0.3333333333333333, 0.3333333333333333, 0.3333333333333333;
    ( NULL, E0068, NULL, E0377, NULL, NULL, E0098, NULL, NULL, NULL, NULL ) 0.3333333333333333, 0.3333333333333333, 0.3333333333333333;
    ( NULL, E0068, NULL, E0377, NULL, NULL, NULL, E0045, NULL, NULL, E0032 ) 0.3333333333333333, 0.3333333333333333, 0.3333333333333333;
    ( NULL, E0068, NULL, E0377, NULL, NULL, NULL, E0045, NULL, NULL, E0037 ) 0.3333333333333333, 0.3333333333333333, 0.3333333333333333;
    ( NULL, E0068, NULL, E0377, NULL, NULL, NULL, E0045, NULL, NULL, NULL ) 0.3333333333333333, 0.3333333333333333, 0.3333333333333333;
    ( NULL, E0068, NULL, E0377, NULL, NULL, NULL, E0052, NULL, NULL, E0032 ) 0.3333333333333333, 0.3333333333333333, 0.3333333333333333;
    ( NULL, E0068, NULL, E0377, NULL, NULL, NULL, E0052, NULL, NULL, E0037 ) 0.3333333333333333, 0.3333333333333333, 0.3333333333333333;
    ( NULL, E0068, NULL, E0377, NULL, NULL, NULL, E0052, NULL, NULL, NULL ) 0.3333333333333333, 0.3333333333333333, 0.3333333333333333;
    ( NULL, E0068, NULL, E0377, NULL, NULL, NULL, NULL, NULL, NULL, E0032 ) 0.3333333333333333, 0.3333333333333333, 0.3333333333333333;
    ( NULL, E0068, NULL, E0377, NULL, NULL, NULL, NULL, NULL, NULL, E0037 ) 0.3333333333333333, 0.3333333333333333, 0.3333333333333333;
    ( NULL, E0068, NULL, E0377, NULL, NULL, NULL, NULL, NULL, NULL, NULL ) 0.3333333333333333, 0.3333333333333333, 0.3333333333333333;
    ( NULL, E0068, NULL, E0382, E0092, E0054, E0098, E0045, NULL, NULL, E0032 ) 0.3333333333333333, 0.3333333333333333, 0.3333333333333333;
    ( NULL, E0068, NULL, E0382, E0092, E0054, E0098, E0045, NULL, NULL, E0037 ) 0.3333333333333333, 0.3333333333333333, 0.3333333333333333;
    ( NULL, E0068, NULL, E0382, E0092, E0054, E0098, E0045, NULL, NULL, NULL ) 0.3333333333333333, 0.3333333333333333, 0.3333333333333333;
    ( NULL, E0068, NULL, E0382, E0092, E0054, E0098, E0052, NULL, NULL, E0032 ) 0.3333333333333333, 0.3333333333333333, 0.3333333333333333;
    ( NULL, E0068, NULL, E0382, E0092, E0054, E0098, E0052, NULL, NULL, E0037 ) 0.3333333333333333, 0.3333333333333333, 0.3333333333333333;
    ( NULL, E0068, NULL, E0382, E0092, E0054, E0098, E0052, NULL, NULL, NULL ) 0.3333333333333333, 0.3333333333333333, 0.3333333333333333;
    ( NULL, E0068, NULL, E0382, E0092, E0054, E0098, NULL, NULL, NULL, E0032 ) 0.3333333333333333, 0.3333333333333333, 0.3333333333333333;
    ( NULL, E0068, NULL, E0382, E0092, E0054, E0098, NULL, NULL, NULL, E0037 ) 0.3333333333333333, 0.3333333333333333, 0.3333333333333333;
    ( NULL, E0068, NULL, E0382, E0092, E0054, E0098, NULL, NULL, NULL, NULL ) 0.3333333333333333, 0.3333333333333333, 0.3333333333333333;
    ( NULL, E0068, NULL, E0382, E0092, E0054, NULL, E0045, NULL, NULL, E0032 ) 0.3333333333333333, 0.3333333333333333, 0.3333333333333333;
    ( NULL, E0068, NULL, E0382, E0092, E0054, NULL, E0045, NULL, NULL, E0037 ) 0.3333333333333333, 0.3333333333333333, 0.3333333333333333;
    ( NULL, E0068, NULL, E0382, E0092, E0054, NULL, E0045, NULL, NULL, NULL ) 0.3333333333333333, 0.3333333333333333, 0.3333333333333333;
    ( NULL, E0068, NULL, E0382, E0092, E0054, NULL, E0052, NULL, NULL, E0032 ) 0.3333333333333333, 0.3333333333333333, 0.3333333333333333;
    ( NULL, E0068, NULL, E0382, E0092, E0054, NULL, E0052, NULL, NULL, E0037 ) 0.3333333333333333, 0.3333333333333333, 0.3333333333333333;
    ( NULL, E0068, NULL, E0382, E0092, E0054, NULL, E0052, NULL, NULL, NULL ) 0.3333333333333333, 0.3333333333333333, 0.3333333333333333;
    ( NULL, E0068, NULL, E0382, E0092, E0054, NULL, NULL, NULL, NULL, E0032 ) 0.3333333333333333, 0.3333333333333333, 0.3333333333333333;
    ( NULL, E0068, NULL, E0382, E0092, E0054, NULL, NULL, NULL, NULL, E0037 ) 0.3333333333333333, 0.3333333333333333, 0.3333333333333333;
    ( NULL, E0068, NULL, E0382, E0092, E0054, NULL, NULL, NULL, NULL, NULL ) 0.3333333333333333, 0.3333333333333333, 0.3333333333333333;
    ( NULL, E0068, NULL, E0382, E0092, E0059, E0098, E0045, NULL, NULL, E0032 ) 0.3333333333333333, 0.3333333333333333, 0.3333333333333333;
    ( NULL, E0068, NULL, E0382, E0092, E0059, E0098, E0045, NULL, NULL, E0037 ) 0.3333333333333333, 0.3333333333333333, 0.3333333333333333;
    ( NULL, E0068, NULL, E0382, E0092, E0059, E0098, E0045, NULL, NULL, NULL ) 0.3333333333333333, 0.3333333333333333, 0.3333333333333333;
    ( NULL, E0068, NULL, E0382, E0092, E0059, E0098, E0052, NULL, NULL, E0032 ) 0.3333333333333333, 0.3333333333333333, 0.3333333333333333;
    ( NULL, E0068, NULL, E0382, E0092, E0059, E0098, E0052, NULL, NULL, E0037 ) 0.3333333333333333, 0.3333333333333333, 0.3333333333333333;
    ( NULL, E0068, NULL, E0382, E0092, E0059, E0098, E0052, NULL, NULL, NULL ) 0.3333333333333333, 0.3333333333333333, 0.3333333333333333;
    ( NULL, E0068, NULL, E0382, E0092, E0059, E0098, NULL, NULL, NULL, E0032 ) 0.3333333333333333, 0.3333333333333333, 0.3333333333333333;
    ( NULL, E0068, NULL, E0382, E0092, E0059, E0098, NULL, NULL, NULL, E0037 ) 0.3333333333333333, 0.3333333333333333, 0.3333333333333333;
    ( NULL, E0068, NULL, E0382, E0092, E0059, E0098, NULL, NULL, NULL, NULL ) 0.3333333333333333, 0.3333333333333333, 0.3333333333333333;
    ( NULL, E0068, NULL, E0382, E0092, E0059, NULL, E0045, NULL, NULL, E0032 ) 0.3333333333333333, 0.3333333333333333, 0.3333333333333333;
    ( NULL, E0068, NULL, E0382, E0092, E0059, NULL, E0045, NULL, NULL, E0037 ) 0.3333333333333333, 0.3333333333333333, 0.3333333333333333;
    ( NULL, E0068, NULL, E0382, E0092, E0059, NULL, E0045, NULL, NULL, NULL ) 0.3333333333333333, 0.3333333333333333, 0.3333333333333333;
    ( NULL, E0068, NULL, E0382, E0092, E0059, NULL, E0052, NULL, NULL, E0032 ) 0.3333333333333333, 0.3333333333333333, 0.3333333333333333;
    ( NULL, E0068, NULL, E0382, E0092, E0059, NULL, E0052, NULL, NULL, E0037 ) 0.3333333333333333, 0.3333333333333333, 0.3333333333333333;
    ( NULL, E0068, NULL, E0382, E0092, E0059, NULL, E0052, NULL, NULL, NULL ) 0.3333333333333333, 0.3333333333333333, 0.3333333333333333;
    ( NULL, E0068, NULL, E0382, E0092, E0059, NULL, NULL, NULL, NULL, E0032 ) 0.3333333333333333, 0.3333333333333333, 0.3333333333333333;
    ( NULL, E0068, NULL, E0382, E0092, E0059, NULL, NULL, NULL, NULL, E0037 ) 0.3333333333333333, 0.3333333333333333, 0.3333333333333333;
    ( NULL, E0068, NULL, E0382, E0092, E0059, NULL, NULL, NULL, NULL, NULL ) 0.3333333333333333, 0.3333333333333333, 0.3333333333333333;
    ( NULL, E0068, NULL, E0382, E0092, NULL, E0098, E0045, NULL, NULL, E0032 ) 0.3333333333333333, 0.3333333333333333, 0.3333333333333333;
    ( NULL, E0068, NULL, E0382, E0092, NULL, E0098, E0045, NULL, NULL, E0037 ) 0.3333333333333333, 0.3333333333333333, 0.3333333333333333;
    ( NULL, E0068, NULL, E0382, E0092, NULL, E0098, E0045, NULL, NULL, NULL ) 0.3333333333333333, 0.3333333333333333, 0.3333333333333333;
    ( NULL, E0068, NULL, E0382, E0092, NULL, E0098, E0052, NULL, NULL, E0032 ) 0.3333333333333333, 0.3333333333333333, 0.3333333333333333;
    ( NULL, E0068, NULL, E0382, E0092, NULL, E0098, E0052, NULL, NULL, E0037 ) 0.3333333333333333, 0.3333333333333333, 0.3333333333333333;
    ( NULL, E0068, NULL, E0382, E0092, NULL, E0098, E0052, NULL, NULL, NULL ) 0.3333333333333333, 0.3333333333333333, 0.3333333333333333;
    ( NULL, E0068, NULL, E0382, E0092, NULL, E0098, NULL, NULL, NULL, E0032 ) 0.3333333333333333, 0.3333333333333333, 0.3333333333333333;
    ( NULL, E0068, NULL, E0382, E0092, NULL, E0098, NULL, NULL, NULL, E0037 ) 0.3333333333333333, 0.3333333333333333, 0.3333333333333333;
    ( NULL, E0068, NULL, E0382, E0092, NULL, E0098, NULL, NULL, NULL, NULL ) 0.3333333333333333, 0.3333333333333333, 0.3333333333333333;
    ( NULL, E0068, NULL, E0382, E0092, NULL, NULL, E0045, NULL, NULL, E0032 ) 0.3333333333333333, 0.3333333333333333, 0.3333333333333333;
    ( NULL, E0068, NULL, E0382, E0092, NULL, NULL, E0045, NULL, NULL, E0037 ) 0.3333333333333333, 0.3333333333333333, 0.3333333333333333;
    ( NULL, E0068, NULL, E0382, E0092, NULL, NULL, E0045, NULL, NULL, NULL ) 0.3333333333333333, 0.3333333333333333, 0.3333333333333333;
    ( NULL, E0068, NULL, E0382, E0092, NULL, NULL, E0052, NULL, NULL, E0032 ) 0.3333333333333333, 0.3333333333333333, 0.3333333333333333;
    ( NULL, E0068, NULL, E0382, E0092, NULL, NULL, E0052, NULL, NULL, E0037 ) 0.3333333333333333, 0.3333333333333333, 0.3333333333333333;
    ( NULL, E0068, NULL, E0382, E0092, NULL, NULL, E0052, NULL, NULL, NULL ) 0.3333333333333333, 0.3333333333333333, 0.3333333333333333;
    ( NULL, E0068, NULL, E0382, E0092, NULL, NULL, NULL, NULL, NULL, E0032 ) 0.3333333333333333, 0.3333333333333333, 0.3333333333333333;
    ( NULL, E0068, NULL, E0382, E0092, NULL, NULL, NULL, NULL, NULL, E0037 ) 0.3333333333333333, 0.3333333333333333, 0.3333333333333333;
    ( NULL, E0068, NULL, E0382, E0092, NULL, NULL, NULL, NULL, NULL, NULL ) 0.3333333333333333, 0.3333333333333333, 0.3333333333333333;
    ( NULL, E0068, NULL, E0382, NULL, E0054, E0098, E0045, NULL, NULL, E0032 ) 0.3333333333333333, 0.3333333333333333, 0.3333333333333333;
    ( NULL, E0068, NULL, E0382, NULL, E0054, E0098, E0045, NULL, NULL, E0037 ) 0.3333333333333333, 0.3333333333333333, 0.3333333333333333;
    ( NULL, E0068, NULL, E0382, NULL, E0054, E0098, E0045, NULL, NULL, NULL ) 0.3333333333333333, 0.3333333333333333, 0.3333333333333333;
    ( NULL, E0068, NULL, E0382, NULL, E0054, E0098, E0052, NULL, NULL, E0032 ) 0.3333333333333333, 0.3333333333333333, 0.3333333333333333;
    ( NULL, E0068, NULL, E0382, NULL, E0054, E0098, E0052, NULL, NULL, E0037 ) 0.3333333333333333, 0.3333333333333333, 0.3333333333333333;
    ( NULL, E0068, NULL, E0382, NULL, E0054, E0098, E0052, NULL, NULL, NULL ) 0.3333333333333333, 0.3333333333333333, 0.3333333333333333;
    ( NULL, E0068, NULL, E0382, NULL, E0054, E0098, NULL, NULL, NULL, E0032 ) 0.3333333333333333, 0.3333333333333333, 0.3333333333333333;
    ( NULL, E0068, NULL, E0382, NULL, E0054, E0098, NULL, NULL, NULL, E0037 ) 0.3333333333333333, 0.3333333333333333, 0.3333333333333333;
    ( NULL, E0068, NULL, E0382, NULL, E0054, E0098, NULL, NULL, NULL, NULL ) 0.3333333333333333, 0.3333333333333333, 0.3333333333333333;
    ( NULL, E0068, NULL, E0382, NULL, E0054, NULL, E0045, NULL, NULL, E0032 ) 0.3333333333333333, 0.3333333333333333, 0.3333333333333333;
    ( NULL, E0068, NULL, E0382, NULL, E0054, NULL, E0045, NULL, NULL, E0037 ) 0.3333333333333333, 0.3333333333333333, 0.3333333333333333;
    ( NULL, E0068, NULL, E0382, NULL, E0054, NULL, E0045, NULL, NULL, NULL ) 0.3333333333333333, 0.3333333333333333, 0.3333333333333333;
    ( NULL, E0068, NULL, E0382, NULL, E0054, NULL, E0052, NULL, NULL, E0032 ) 0.3333333333333333, 0.3333333333333333, 0.3333333333333333;
    ( NULL, E0068, NULL, E0382, NULL, E0054, NULL, E0052, NULL, NULL, E0037 ) 0.3333333333333333, 0.3333333333333333, 0.3333333333333333;
    ( NULL, E0068, NULL, E0382, NULL, E0054, NULL, E0052, NULL, NULL, NULL ) 0.3333333333333333, 0.3333333333333333, 0.3333333333333333;
    ( NULL, E0068, NULL, E0382, NULL, E0054, NULL, NULL, NULL, NULL, E0032 ) 0.3333333333333333, 0.3333333333333333, 0.3333333333333333;
    ( NULL, E0068, NULL, E0382, NULL, E0054, NULL, NULL, NULL, NULL, E0037 ) 0.3333333333333333, 0.3333333333333333, 0.3333333333333333;
    ( NULL, E0068, NULL, E0382, NULL, E0054, NULL, NULL, NULL, NULL, NULL ) 0.3333333333333333, 0.3333333333333333, 0.3333333333333333;
    ( NULL, E0068, NULL, E0382, NULL, E0059, E0098, E0045, NULL, NULL, E0032 ) 0.3333333333333333, 0.3333333333333333, 0.3333333333333333;
    ( NULL, E0068, NULL, E0382, NULL, E0059, E0098, E0045, NULL, NULL, E0037 ) 0.3333333333333333, 0.3333333333333333, 0.3333333333333333;
    ( NULL, E0068, NULL, E0382, NULL, E0059, E0098, E0045, NULL, NULL, NULL ) 0.3333333333333333, 0.3333333333333333, 0.3333333333333333;
    ( NULL, E0068, NULL, E0382, NULL, E0059, E0098, E0052, NULL, NULL, E0032 ) 0.3333333333333333, 0.3333333333333333, 0.3333333333333333;
    ( NULL, E0068, NULL, E0382, NULL, E0059, E0098, E0052, NULL, NULL, E0037 ) 0.3333333333333333, 0.3333333333333333, 0.3333333333333333;
    ( NULL, E0068, NULL, E0382, NULL, E0059, E0098, E0052, NULL, NULL, NULL ) 0.3333333333333333, 0.3333333333333333, 0.3333333333333333;
    ( NULL, E0068, NULL, E0382, NULL, E0059, E0098, NULL, NULL, NULL, E0032 ) 0.3333333333333333, 0.3333333333333333, 0.3333333333333333;
    ( NULL, E0068, NULL, E0382, NULL, E0059, E0098, NULL, NULL, NULL, E0037 ) 0.3333333333333333, 0.3333333333333333, 0.3333333333333333;
    ( NULL, E0068, NULL, E0382, NULL, E0059, E0098, NULL, NULL, NULL, NULL ) 0.3333333333333333, 0.3333333333333333, 0.3333333333333333;
    ( NULL, E0068, NULL, E0382, NULL, E0059, NULL, E0045, NULL, NULL, E0032 ) 0.3333333333333333, 0.3333333333333333, 0.3333333333333333;
    ( NULL, E0068, NULL, E0382, NULL, E0059, NULL, E0045, NULL, NULL, E0037 ) 0.3333333333333333, 0.3333333333333333, 0.3333333333333333;
    ( NULL, E0068, NULL, E0382, NULL, E0059, NULL, E0045, NULL, NULL, NULL ) 0.3333333333333333, 0.3333333333333333, 0.3333333333333333;
    ( NULL, E0068, NULL, E0382, NULL, E0059, NULL, E0052, NULL, NULL, E0032 ) 0.3333333333333333, 0.3333333333333333, 0.3333333333333333;
    ( NULL, E0068, NULL, E0382, NULL, E0059, NULL, E0052, NULL, NULL, E0037 ) 0.3333333333333333, 0.3333333333333333, 0.3333333333333333;
    ( NULL, E0068, NULL, E0382, NULL, E0059, NULL, E0052, NULL, NULL, NULL ) 0.3333333333333333, 0.3333333333333333, 0.3333333333333333;
    ( NULL, E0068, NULL, E0382, NULL, E0059, NULL, NULL, NULL, NULL, E0032 ) 0.3333333333333333, 0.3333333333333333, 0.3333333333333333;
    ( NULL, E0068, NULL, E0382, NULL, E0059, NULL, NULL, NULL, NULL, E0037 ) 0.3333333333333333, 0.3333333333333333, 0.3333333333333333;
    ( NULL, E0068, NULL, E0382, NULL, E0059, NULL, NULL, NULL, NULL, NULL ) 0.3333333333333333, 0.3333333333333333, 0.3333333333333333;
    ( NULL, E0068, NULL, E0382, NULL, NULL, E0098, E0045, NULL, NULL, E0032 ) 0.3333333333333333, 0.3333333333333333, 0.3333333333333333;
    ( NULL, E0068, NULL, E0382, NULL, NULL, E0098, E0045, NULL, NULL, E0037 ) 0.3333333333333333, 0.3333333333333333, 0.3333333333333333;
    ( NULL, E0068, NULL, E0382, NULL, NULL, E0098, E0045, NULL, NULL, NULL ) 0.3333333333333333, 0.3333333333333333, 0.3333333333333333;
    ( NULL, E0068, NULL, E0382, NULL, NULL, E0098, E0052, NULL, NULL, E0032 ) 0.3333333333333333, 0.3333333333333333, 0.3333333333333333;
    ( NULL, E0068, NULL, E0382, NULL, NULL, E0098, E0052, NULL, NULL, E0037 ) 0.3333333333333333, 0.3333333333333333, 0.3333333333333333;
    ( NULL, E0068, NULL, E0382, NULL, NULL, E0098, E0052, NULL, NULL, NULL ) 0.3333333333333333, 0.3333333333333333, 0.3333333333333333;
    ( NULL, E0068, NULL, E0382, NULL, NULL, E0098, NULL, NULL, NULL, E0032 ) 0.3333333333333333, 0.3333333333333333, 0.3333333333333333;
    ( NULL, E0068, NULL, E0382, NULL, NULL, E0098, NULL, NULL, NULL, E0037 ) 0.3333333333333333, 0.3333333333333333, 0.3333333333333333;
    ( NULL, E0068, NULL, E0382, NULL, NULL, E0098, NULL, NULL, NULL, NULL ) 0.3333333333333333, 0.3333333333333333, 0.3333333333333333;
    ( NULL, E0068, NULL, E0382, NULL, NULL, NULL, E0045, NULL, NULL, E0032 ) 0.3333333333333333, 0.3333333333333333, 0.3333333333333333;
    ( NULL, E0068, NULL, E0382, NULL, NULL, NULL, E0045, NULL, NULL, E0037 ) 0.3333333333333333, 0.3333333333333333, 0.3333333333333333;
    ( NULL, E0068, NULL, E0382, NULL, NULL, NULL, E0045, NULL, NULL, NULL ) 0.3333333333333333, 0.3333333333333333, 0.3333333333333333;
    ( NULL, E0068, NULL, E0382, NULL, NULL, NULL, E0052, NULL, NULL, E0032 ) 0.3333333333333333, 0.3333333333333333, 0.3333333333333333;
    ( NULL, E0068, NULL, E0382, NULL, NULL, NULL, E0052, NULL, NULL, E0037 ) 0.3333333333333333, 0.3333333333333333, 0.3333333333333333;
    ( NULL, E0068, NULL, E0382, NULL, NULL, NULL, E0052, NULL, NULL, NULL ) 0.3333333333333333, 0.3333333333333333, 0.3333333333333333;
    ( NULL, E0068, NULL, E0382, NULL, NULL, NULL, NULL, NULL, NULL, E0032 ) 0.3333333333333333, 0.3333333333333333, 0.3333333333333333;
    ( NULL, E0068, NULL, E0382, NULL, NULL, NULL, NULL, NULL, NULL, E0037 ) 0.3333333333333333, 0.3333333333333333, 0.3333333333333333;
    ( NULL, E0068, NULL, E0382, NULL, NULL, NULL, NULL, NULL, NULL, NULL ) 0.3333333333333333, 0.3333333333333333, 0.3333333333333333;
    ( NULL, E0075, E0102, E0375, E0092, E0054, E0098, E0045, NULL, NULL, E0032 ) 0.3333333333333333, 0.3333333333333333, 0.3333333333333333;
    ( NULL, E0075, E0102, E0375, E0092, E0054, E0098, E0045, NULL, NULL, E0037 ) 0.3333333333333333, 0.3333333333333333, 0.3333333333333333;
    ( NULL, E0075, E0102, E0375, E0092, E0054, E0098, E0045, NULL, NULL, NULL ) 0.3333333333333333, 0.3333333333333333, 0.3333333333333333;
    ( NULL, E0075, E0102, E0375, E0092, E0054, E0098, E0052, NULL, NULL, E0032 ) 0.3333333333333333, 0.3333333333333333, 0.3333333333333333;
    ( NULL, E0075, E0102, E0375, E0092, E0054, E0098, E0052, NULL, NULL, E0037 ) 0.3333333333333333, 0.3333333333333333, 0.3333333333333333;
    ( NULL, E0075, E0102, E0375, E0092, E0054, E0098, E0052, NULL, NULL, NULL ) 0.3333333333333333, 0.3333333333333333, 0.3333333333333333;
    ( NULL, E0075, E0102, E0375, E0092, E0054, E0098, NULL, NULL, NULL, E0032 ) 0.3333333333333333, 0.3333333333333333, 0.3333333333333333;
    ( NULL, E0075, E0102, E0375, E0092, E0054, E0098, NULL, NULL, NULL, E0037 ) 0.3333333333333333, 0.3333333333333333, 0.3333333333333333;
    ( NULL, E0075, E0102, E0375, E0092, E0054, E0098, NULL, NULL, NULL, NULL ) 0.3333333333333333, 0.3333333333333333, 0.3333333333333333;
    ( NULL, E0075, E0102, E0375, E0092, E0054, NULL, E0045, NULL, NULL, E0032 ) 0.3333333333333333, 0.3333333333333333, 0.3333333333333333;
    ( NULL, E0075, E0102, E0375, E0092, E0054, NULL, E0045, NULL, NULL, E0037 ) 0.3333333333333333, 0.3333333333333333, 0.3333333333333333;
    ( NULL, E0075, E0102, E0375, E0092, E0054, NULL, E0045, NULL, NULL, NULL ) 0.3333333333333333, 0.3333333333333333, 0.3333333333333333;
    ( NULL, E0075, E0102, E0375, E0092, E0054, NULL, E0052, NULL, NULL, E0032 ) 0.3333333333333333, 0.3333333333333333, 0.3333333333333333;
    ( NULL, E0075, E0102, E0375, E0092, E0054, NULL, E0052, NULL, NULL, E0037 ) 0.3333333333333333, 0.3333333333333333, 0.3333333333333333;
    ( NULL, E0075, E0102, E0375, E0092, E0054, NULL, E0052, NULL, NULL, NULL ) 0.3333333333333333, 0.3333333333333333, 0.3333333333333333;
    ( NULL, E0075, E0102, E0375, E0092, E0054, NULL, NULL, NULL, NULL, E0032 ) 0.3333333333333333, 0.3333333333333333, 0.3333333333333333;
    ( NULL, E0075, E0102, E0375, E0092, E0054, NULL, NULL, NULL, NULL, E0037 ) 0.3333333333333333, 0.3333333333333333, 0.3333333333333333;
    ( NULL, E0075, E0102, E0375, E0092, E0054, NULL, NULL, NULL, NULL, NULL ) 0.3333333333333333, 0.3333333333333333, 0.3333333333333333;
    ( NULL, E0075, E0102, E0375, E0092, E0059, E0098, E0045, NULL, NULL, E0032 ) 0.3333333333333333, 0.3333333333333333, 0.3333333333333333;
    ( NULL, E0075, E0102, E0375, E0092, E0059, E0098, E0045, NULL, NULL, E0037 ) 0.3333333333333333, 0.3333333333333333, 0.3333333333333333;
    ( NULL, E0075, E0102, E0375, E0092, E0059, E0098, E0045, NULL, NULL, NULL ) 0.3333333333333333, 0.3333333333333333, 0.3333333333333333;
    ( NULL, E0075, E0102, E0375, E0092, E0059, E0098, E0052, NULL, NULL, E0032 ) 0.3333333333333333, 0.3333333333333333, 0.3333333333333333;
    ( NULL, E0075, E0102, E0375, E0092, E0059, E0098, E0052, NULL, NULL, E0037 ) 0.3333333333333333, 0.3333333333333333, 0.3333333333333333;
    ( NULL, E0075, E0102, E0375, E0092, E0059, E0098, E0052, NULL, NULL, NULL ) 0.3333333333333333, 0.3333333333333333, 0.3333333333333333;
    ( NULL, E0075, E0102, E0375, E0092, E0059, E0098, NULL, NULL, NULL, E0032 ) 0.3333333333333333, 0.3333333333333333, 0.3333333333333333;
    ( NULL, E0075, E0102, E0375, E0092, E0059, E0098, NULL, NULL, NULL, E0037 ) 0.3333333333333333, 0.3333333333333333, 0.3333333333333333;
    ( NULL, E0075, E0102, E0375, E0092, E0059, E0098, NULL, NULL, NULL, NULL ) 0.3333333333333333, 0.3333333333333333, 0.3333333333333333;
    ( NULL, E0075, E0102, E0375, E0092, E0059, NULL, E0045, NULL, NULL, E0032 ) 0.3333333333333333, 0.3333333333333333, 0.3333333333333333;
    ( NULL, E0075, E0102, E0375, E0092, E0059, NULL, E0045, NULL, NULL, E0037 ) 0.3333333333333333, 0.3333333333333333, 0.3333333333333333;
    ( NULL, E0075, E0102, E0375, E0092, E0059, NULL, E0045, NULL, NULL, NULL ) 0.3333333333333333, 0.3333333333333333, 0.3333333333333333;
    ( NULL, E0075, E0102, E0375, E0092, E0059, NULL, E0052, NULL, NULL, E0032 ) 0.3333333333333333, 0.3333333333333333, 0.3333333333333333;
    ( NULL, E0075, E0102, E0375, E0092, E0059, NULL, E0052, NULL, NULL, E0037 ) 0.3333333333333333, 0.3333333333333333, 0.3333333333333333;
    ( NULL, E0075, E0102, E0375, E0092, E0059, NULL, E0052, NULL, NULL, NULL ) 0.3333333333333333, 0.3333333333333333, 0.3333333333333333;
    ( NULL, E0075, E0102, E0375, E0092, E0059, NULL, NULL, NULL, NULL, E0032 ) 0.3333333333333333, 0.3333333333333333, 0.3333333333333333;
    ( NULL, E0075, E0102, E0375, E0092, E0059, NULL, NULL, NULL, NULL, E0037 ) 0.3333333333333333, 0.3333333333333333, 0.3333333333333333;
    ( NULL, E0075, E0102, E0375, E0092, E0059, NULL, NULL, NULL, NULL, NULL ) 0.3333333333333333, 0.3333333333333333, 0.3333333333333333;
    ( NULL, E0075, E0102, E0375, E0092, NULL, E0098, E0045, NULL, NULL, E0032 ) 0.3333333333333333, 0.3333333333333333, 0.3333333333333333;
    ( NULL, E0075, E0102, E0375, E0092, NULL, E0098, E0045, NULL, NULL, E0037 ) 0.3333333333333333, 0.3333333333333333, 0.3333333333333333;
    ( NULL, E0075, E0102, E0375, E0092, NULL, E0098, E0045, NULL, NULL, NULL ) 0.3333333333333333, 0.3333333333333333, 0.3333333333333333;
    ( NULL, E0075, E0102, E0375, E0092, NULL, E0098, E0052, NULL, NULL, E0032 ) 0.3333333333333333, 0.3333333333333333, 0.3333333333333333;
    ( NULL, E0075, E0102, E0375, E0092, NULL, E0098, E0052, NULL, NULL, E0037 ) 0.3333333333333333, 0.3333333333333333, 0.3333333333333333;
    ( NULL, E0075, E0102, E0375, E0092, NULL, E0098, E0052, NULL, NULL, NULL ) 0.3333333333333333, 0.3333333333333333, 0.3333333333333333;
    ( NULL, E0075, E0102, E0375, E0092, NULL, E0098, NULL, NULL, NULL, E0032 ) 0.3333333333333333, 0.3333333333333333, 0.3333333333333333;
    ( NULL, E0075, E0102, E0375, E0092, NULL, E0098, NULL, NULL, NULL, E0037 ) 0.3333333333333333, 0.3333333333333333, 0.3333333333333333;
    ( NULL, E0075, E0102, E0375, E0092, NULL, E0098, NULL, NULL, NULL, NULL ) 0.3333333333333333, 0.3333333333333333, 0.3333333333333333;
    ( NULL, E0075, E0102, E0375, E0092, NULL, NULL, E0045, NULL, NULL, E0032 ) 0.3333333333333333, 0.3333333333333333, 0.3333333333333333;
    ( NULL, E0075, E0102, E0375, E0092, NULL, NULL, E0045, NULL, NULL, E0037 ) 0.3333333333333333, 0.3333333333333333, 0.3333333333333333;
    ( NULL, E0075, E0102, E0375, E0092, NULL, NULL, E0045, NULL, NULL, NULL ) 0.3333333333333333, 0.3333333333333333, 0.3333333333333333;
    ( NULL, E0075, E0102, E0375, E0092, NULL, NULL, E0052, NULL, NULL, E0032 ) 0.3333333333333333, 0.3333333333333333, 0.3333333333333333;
    ( NULL, E0075, E0102, E0375, E0092, NULL, NULL, E0052, NULL, NULL, E0037 ) 0.3333333333333333, 0.3333333333333333, 0.3333333333333333;
    ( NULL, E0075, E0102, E0375, E0092, NULL, NULL, E0052, NULL, NULL, NULL ) 0.3333333333333333, 0.3333333333333333, 0.3333333333333333;
    ( NULL, E0075, E0102, E0375, E0092, NULL, NULL, NULL, NULL, NULL, E0032 ) 0.3333333333333333, 0.3333333333333333, 0.3333333333333333;
    ( NULL, E0075, E0102, E0375, E0092, NULL, NULL, NULL, NULL, NULL, E0037 ) 0.3333333333333333, 0.3333333333333333, 0.3333333333333333;
    ( NULL, E0075, E0102, E0375, E0092, NULL, NULL, NULL, NULL, NULL, NULL ) 0.3333333333333333, 0.3333333333333333, 0.3333333333333333;
    ( NULL, E0075, E0102, E0375, NULL, E0054, E0098, E0045, NULL, NULL, E0032 ) 0.3333333333333333, 0.3333333333333333, 0.3333333333333333;
    ( NULL, E0075, E0102, E0375, NULL, E0054, E0098, E0045, NULL, NULL, E0037 ) 0.3333333333333333, 0.3333333333333333, 0.3333333333333333;
    ( NULL, E0075, E0102, E0375, NULL, E0054, E0098, E0045, NULL, NULL, NULL ) 0.3333333333333333, 0.3333333333333333, 0.3333333333333333;
